%YAML:1.0
my_svm: !!opencv-ml-svm
   svm_type: C_SVC
   kernel: { type:RBF, gamma:5.0619999999999998e-001 }
   C: 3.1250299999999999e+002
   term_criteria: { epsilon:2.2204460492503131e-016, iterations:100 }
   var_all: 400
   var_count: 400
   class_count: 2
   class_labels: !!opencv-matrix
      rows: 1
      cols: 2
      dt: i
      data: [ 0, 1 ]
   sv_total: 97
   support_vectors:
      - [ 1.31318916e-003, 9.51881884e-005, 5.73375382e-006,
          1.85035287e-006, 4.10092063e-003, 0., 1.45279202e-007, 0.,
          3.94164308e-005, 1.29263499e-003, 0., 3.28047830e-003,
          9.34000766e-010, 0., 0., 2.29395269e-007, 6.22389052e-005, 0.,
          2.34375932e-007, 0., 2.37873632e-009, 0., 0., 0., 0., 0., 0.,
          5.99147403e-004, 1.39410119e-003, 0., 4.75487579e-003, 0.,
          1.40488225e-008, 0., 0., 0., 3.96904688e-005, 0., 0.,
          1.30633534e-005, 1.61974821e-002, 1.73252309e-003, 0.,
          2.89141183e-010, 5.03740413e-003, 0., 6.56173725e-005,
          1.44860624e-005, 1.03693306e-002, 8.17937178e-007, 0., 0., 0.,
          2.31261831e-004, 2.61151672e-006, 0., 6.85951682e-006,
          1.38945757e-006, 0., 0., 3.32988857e-005, 9.94756483e-005,
          2.61151672e-006, 0., 0., 1.25693828e-002, 2.16752421e-002, 0.,
          0., 1.97314029e-003, 1.54331747e-009, 0., 1.15688431e-006, 0.,
          2.46238210e-006, 1.19489458e-004, 8.23255778e-006, 0.,
          6.70251987e-009, 0., 1.35017112e-002, 5.63393254e-003,
          8.62746276e-007, 0., 5.83630754e-003, 2.93884985e-002,
          2.92008859e-003, 0., 7.65296340e-004, 0., 0., 1.16706542e-004,
          5.03908750e-003, 0., 0., 4.01687714e-008, 0., 0., 0., 0.,
          3.52888438e-003, 0., 1.29640298e-008, 1.84396558e-004,
          1.84114233e-005, 1.12010457e-003, 0., 0., 8.21852211e-007,
          4.31089010e-003, 0., 0., 0., 0., 7.01174955e-004,
          3.79596327e-006, 1.55124258e-009, 6.95961404e-008, 0.,
          8.58101901e-003, 0., 9.86306556e-003, 2.21143151e-003,
          4.15031627e-006, 0., 0., 9.63466462e-008, 1.11299341e-004, 0.,
          3.65213091e-005, 0., 0., 2.32894090e-003, 0., 2.22609913e-008,
          0., 1.52677239e-003, 3.12320410e-008, 0., 0., 0.,
          2.78354473e-002, 1.12608291e-006, 0., 9.67929168e-008,
          5.86871902e-005, 0., 0., 3.49755341e-004, 2.32219193e-007, 0.,
          7.74133787e-006, 2.90971069e-008, 1.95743609e-003, 0.,
          1.00948738e-009, 0., 7.87160781e-010, 0., 0., 4.79986375e-005,
          2.63586435e-002, 0., 1.06899358e-006, 0., 0., 6.41569409e-010,
          8.66633787e-009, 3.78860394e-004, 1.47249593e-005,
          3.30210733e-003, 0., 2.17676507e-006, 0., 0., 0.,
          4.71238053e-008, 5.72752606e-006, 2.02051542e-005,
          2.86038535e-008, 5.54208382e-005, 0., 0., 3.52169718e-006,
          1.58899662e-003, 0., 1.55124258e-009, 0., 0., 0.,
          2.78391363e-003, 0., 9.30174792e-007, 0., 1.24626549e-005, 0.,
          5.95853606e-008, 0., 1.74957328e-004, 1.85035287e-006,
          3.59168961e-009, 0., 0., 0., 0., 0., 6.59034646e-004,
          1.43854218e-002, 6.46869667e-005, 2.37854500e-003, 0.,
          1.43467691e-008, 9.71695169e-009, 4.02495824e-003,
          1.79887156e-003, 1.27595367e-005, 0., 1.85035287e-006,
          2.16403308e-007, 1.00948738e-009, 1.04945094e-007,
          4.16957438e-002, 0., 0., 0., 0., 3.29530849e-007,
          2.19018641e-003, 5.29512912e-002, 2.28808564e-003, 0.,
          9.15792596e-004, 1.74293350e-002, 0., 1.42876644e-009, 0.,
          1.03751104e-002, 0., 5.78342406e-005, 0., 0., 0., 0., 0., 0.,
          1.85035287e-006, 0., 0., 0., 0., 1.01498600e-007, 0., 0., 0.,
          3.52016123e-008, 2.45160379e-007, 9.08641610e-004, 0., 0.,
          8.10324855e-006, 0., 0., 0., 8.70192196e-010, 0.,
          7.87160781e-010, 5.95891802e-003, 2.60994267e-002,
          4.51374479e-004, 3.95659916e-002, 0., 0., 0., 8.72535602e-005,
          0., 3.28025692e-007, 5.49460708e-007, 6.04657871e-005,
          1.09060863e-006, 1.53333554e-002, 8.53156234e-006,
          8.44270643e-003, 5.89437867e-008, 0., 2.77115684e-002, 0.,
          9.41373990e-004, 1.02324695e-004, 8.21132380e-006, 0.,
          2.19839894e-005, 5.06267952e-007, 1.28259300e-004,
          4.78867914e-005, 0., 9.56375334e-009, 2.72014091e-007,
          5.51810069e-003, 0., 0., 2.15783780e-006, 0., 1.18278422e-006,
          0., 0., 3.36651937e-007, 0., 6.63069422e-009, 2.45870297e-007,
          0., 7.96189159e-002, 1.35993381e-004, 9.68157607e-008, 0.,
          7.36281369e-003, 0., 3.21927480e-002, 1.88676895e-005,
          2.87876232e-004, 2.37633521e-003, 2.35532660e-008, 0., 0.,
          2.64596878e-007, 0., 1.24626549e-005, 0., 7.98099151e-008, 0.,
          0., 2.79779524e-008, 0., 3.92412676e-006, 1.36375299e-003,
          2.62691349e-001, 2.29684110e-006, 2.28522308e-002,
          5.55570434e-009, 0., 9.93582289e-005, 0., 3.65249492e-004,
          2.12223963e-008, 1.19424595e-008, 5.72403633e-006,
          2.64621150e-007, 0., 7.92465258e-008, 0., 1.50374090e-002,
          1.00323505e-009, 1.47440414e-005, 4.55971986e-006,
          1.76518424e-005, 4.03378997e-003, 1.16413124e-009,
          2.70691176e-004, 0., 0., 6.41569409e-010, 4.34889580e-006, 0.,
          0., 6.82748901e-003, 8.82785954e-003, 0., 0., 1.77063612e-006,
          2.15381107e-007, 8.86870839e-004, 0., 2.82212675e-009, 0.,
          2.81301709e-005, 0., 5.53709651e-005, 0., 3.75436182e-010, 0.,
          0., 0., 0., 0., 3.93081064e-006, 9.76290764e-008,
          5.72403633e-006, 5.95649192e-003, 1.13875262e-006, 0.,
          5.39315081e-009, 0., 2.37625511e-003, 3.42923892e-003,
          4.12969001e-008, 5.95523696e-003, 3.01235658e-003,
          2.65812501e-004, 0., 0., 1.11219008e-003 ]
      - [ 3.95826343e-003, 6.46104818e-005, 0., 1.28484378e-003,
          2.25676806e-003, 1.90356637e-008, 1.65561296e-003,
          6.11584261e-003, 9.01566725e-003, 5.99170802e-004,
          6.70354930e-005, 8.72649325e-005, 4.05060797e-004,
          1.06578780e-004, 0., 3.09503048e-006, 0., 6.05183840e-003, 0.,
          0., 0., 0., 1.04519632e-003, 5.92621788e-003, 0.,
          4.18984285e-003, 9.36278011e-005, 4.71865758e-004,
          1.56754523e-003, 0., 2.45497017e-006, 7.45039415e-007,
          2.48816878e-006, 1.80285697e-009, 0., 1.28719548e-004,
          1.91827203e-004, 3.22300359e-003, 0., 2.76810876e-008,
          3.90324031e-014, 0., 0., 6.20089821e-004, 2.94353493e-004,
          2.16226795e-006, 8.69888999e-003, 1.48795298e-005,
          1.03050284e-002, 1.51353525e-008, 5.84361032e-006, 0., 0.,
          2.65222297e-006, 0., 0., 2.73888611e-004, 1.52767927e-003, 0.,
          1.30718561e-010, 5.96474120e-011, 1.08186426e-002,
          1.02433513e-011, 1.90268301e-010, 5.46963292e-008,
          1.50302703e-005, 7.47650536e-003, 4.48334776e-003,
          8.47653078e-004, 6.32525625e-005, 4.34732210e-005, 0., 0., 0.,
          1.25303783e-003, 6.16965629e-003, 4.01094847e-004, 0.,
          2.55075493e-003, 0., 2.17025504e-002, 0., 3.98550677e-004, 0.,
          5.82858920e-004, 1.96788497e-002, 1.09034767e-002, 0.,
          8.59417021e-003, 0., 0., 1.03283825e-003, 5.32225659e-003,
          3.67104891e-003, 0., 1.36378527e-004, 0., 0., 0.,
          3.09536257e-003, 2.17297580e-002, 6.05183840e-003,
          2.04599401e-005, 1.70823105e-003, 6.46276399e-004,
          2.24047162e-005, 0., 0., 1.05248218e-004, 1.43328989e-005, 0.,
          0., 2.77778017e-004, 0., 0., 1.48401568e-005, 2.03225203e-002,
          2.33681116e-004, 0., 1.09678877e-009, 0., 2.47967634e-002,
          9.81477462e-003, 5.31587424e-003, 0., 2.91365293e-010,
          3.37435517e-006, 4.35434747e-004, 0., 6.72409369e-004,
          1.90268301e-010, 0., 6.21231040e-004, 0., 0., 0.,
          3.67582106e-006, 1.24920020e-002, 0., 1.41304703e-002, 0.,
          1.44341132e-002, 5.92530100e-003, 0., 0., 2.26115182e-004, 0.,
          0., 1.93882108e-004, 0., 0., 1.84980877e-006, 0.,
          3.09555652e-003, 0., 6.60032383e-005, 2.62262998e-003,
          1.94406792e-004, 0., 1.14159229e-004, 4.61401092e-003,
          1.64236315e-002, 2.99784285e-003, 4.29606306e-009,
          6.78946943e-009, 0., 0., 1.08740751e-004, 3.08198476e-004, 0.,
          5.56502631e-003, 0., 4.44477337e-005, 0., 7.13931047e-004, 0.,
          3.58432672e-010, 7.35031953e-003, 1.90290521e-004,
          7.97010667e-004, 1.00478539e-002, 0., 5.26437361e-006,
          7.34903384e-003, 5.45291184e-003, 0., 9.01837211e-006,
          4.09476459e-003, 0., 0., 6.15126046e-004, 7.77473324e-004,
          1.56739599e-003, 0., 4.58694389e-003, 0., 6.78982224e-006, 0.,
          4.57850183e-005, 1.42917808e-004, 3.91911657e-004, 0., 0., 0.,
          0., 0., 5.41408498e-012, 5.86714456e-003, 0., 5.17022330e-003,
          0., 0., 6.47606212e-004, 7.54620938e-004, 2.84455549e-002,
          1.52688699e-005, 3.63464176e-004, 1.52676766e-005, 0., 0.,
          2.79422442e-004, 4.52557579e-002, 2.44103969e-004,
          1.23059039e-003, 0., 0., 0., 1.42711843e-003, 7.44571351e-003,
          1.56129347e-004, 0., 1.87707809e-003, 2.49229069e-003, 0.,
          3.61048842e-005, 0., 2.58032669e-004, 0., 1.46646088e-003, 0.,
          0., 0., 1.24494822e-004, 0., 2.62262998e-003, 4.56586480e-003,
          0., 3.07594135e-004, 0., 4.09133005e-004, 3.17068429e-006, 0.,
          0., 0., 0., 5.16600499e-004, 5.92804980e-003, 0.,
          1.36154078e-004, 0., 0., 1.33781566e-006, 0., 2.29762605e-004,
          2.02606475e-006, 1.17170668e-004, 1.34895346e-003,
          3.74188094e-004, 3.22241103e-004, 1.77140404e-002,
          9.01501440e-003, 3.35593591e-004, 0., 5.30971447e-003,
          5.36271455e-006, 0., 5.24920761e-004, 2.27194279e-003,
          3.27576045e-003, 1.73479114e-002, 2.73888611e-004,
          5.00508759e-005, 0., 0., 2.68431157e-002, 1.75535941e-004,
          2.31497615e-004, 5.96367940e-003, 5.13208797e-003, 0.,
          3.56430624e-004, 0., 1.35460580e-002, 4.65982142e-009, 0., 0.,
          0., 2.18150919e-004, 1.90356637e-008, 0., 0., 0.,
          3.11016584e-006, 0., 7.85287283e-003, 0., 0., 4.02586195e-013,
          3.46124126e-003, 0., 6.26125410e-002, 1.13013943e-009,
          1.90424194e-004, 0., 4.16185387e-004, 4.77452700e-009,
          5.67085482e-002, 0., 0., 2.65590177e-004, 6.91500260e-004,
          6.81380334e-004, 1.80285697e-009, 3.78670287e-004, 0., 0., 0.,
          2.39838177e-004, 0., 1.57602213e-003, 1.31793064e-003,
          4.64324869e-004, 6.08874539e-012, 5.34822699e-003,
          7.06349760e-002, 5.68961957e-004, 9.15971212e-003,
          5.36271455e-006, 0., 1.63898207e-002, 0., 9.62022677e-005, 0.,
          2.05310415e-002, 1.23581585e-005, 3.14754070e-005, 0., 0., 0.,
          5.63557624e-005, 0., 7.96592887e-003, 5.44736860e-004, 0.,
          5.17026102e-003, 4.56511974e-003, 5.15054213e-003, 0., 0.,
          1.30672695e-003, 5.27624041e-003, 2.48989672e-004, 0.,
          3.12192440e-002, 2.56115072e-007, 1.01254409e-006,
          3.09536257e-003, 2.37344822e-004, 7.32758408e-003, 0.,
          1.90356637e-008, 1.56741601e-003, 0., 0., 0., 0., 0.,
          6.90363278e-009, 0., 1.40912685e-004, 0., 0., 0., 0.,
          3.70419258e-003, 0., 6.22980017e-003, 0., 3.86586587e-004, 0.,
          0., 0., 0., 4.45489865e-003, 2.16226795e-006, 1.54340779e-002,
          4.01041703e-003, 3.16275866e-003, 0., 3.90291316e-005 ]
      - [ 4.15583747e-003, 1.02999140e-004, 0., 1.32486934e-003,
          2.34761788e-003, 2.89541688e-008, 1.93210237e-003,
          6.33256231e-003, 2.87914509e-003, 5.14041772e-003,
          7.40987234e-005, 9.38843950e-005, 4.59988340e-004,
          1.17533011e-004, 0., 3.99565852e-006, 0., 6.26431964e-003, 0.,
          0., 0., 0., 1.06663269e-003, 6.13639504e-003, 0.,
          4.28382121e-003, 1.08728760e-004, 6.01625652e-004,
          1.59840751e-003, 0., 3.19382275e-006, 1.14611612e-006,
          3.28340843e-006, 3.20230065e-009, 0., 1.39650510e-004,
          6.08807057e-003, 3.23884864e-003, 0., 4.30393712e-008,
          1.19776991e-013, 0., 0., 6.93024776e-004, 4.22830635e-004,
          2.55949612e-006, 9.17709898e-003, 1.17353527e-004,
          1.06878672e-002, 5.20717442e-008, 7.39755706e-006, 0., 0.,
          3.23677045e-006, 0., 0., 5.20646281e-004, 1.56221667e-003, 0.,
          3.24047955e-010, 1.33759517e-010, 1.08239250e-002,
          3.35697234e-011, 5.02278552e-010, 8.67873808e-008,
          1.74339366e-005, 4.99347318e-003, 4.60466184e-003,
          1.33771345e-003, 7.21900506e-005, 4.75240340e-005, 0., 0., 0.,
          1.29168038e-003, 3.13113071e-003, 4.66926082e-004, 0.,
          2.61943205e-003, 0., 3.11391130e-002, 0., 4.32850851e-004, 0.,
          6.57593226e-003, 3.50288302e-002, 1.15342038e-002, 0.,
          5.32699144e-003, 0., 0., 1.05225493e-003, 5.49856061e-003,
          7.87351688e-004, 0., 1.46204751e-004, 0., 0., 0.,
          3.10049136e-003, 3.15019935e-002, 6.26431964e-003,
          2.30709393e-005, 1.74728001e-003, 1.02407113e-003,
          2.53603794e-005, 0., 0., 1.13797752e-004, 2.34007366e-005, 0.,
          2.07738150e-004, 6.14455959e-004, 0., 0., 1.58084131e-005,
          2.02328283e-002, 3.80341167e-004, 0., 2.44763543e-009, 0.,
          7.62718171e-003, 9.85795539e-003, 5.49043808e-003, 0.,
          8.08758449e-010, 4.41124848e-006, 6.73855538e-004, 0.,
          1.96228945e-003, 5.02278552e-010, 0., 6.87879801e-004, 0., 0.,
          0., 4.81849202e-006, 3.60332732e-003, 0., 1.48700168e-002, 0.,
          9.70013440e-003, 7.12665264e-003, 0., 0., 2.50225217e-004, 0.,
          0., 2.20652539e-004, 0., 0., 2.42197166e-006, 0.,
          3.10096168e-003, 0., 7.20424796e-005, 2.66078580e-003,
          2.21429698e-004, 0., 1.22181096e-004, 1.84906239e-003,
          1.79154351e-002, 3.26516386e-003, 7.74842679e-009,
          1.31799753e-008, 0., 0., 1.20091885e-004, 5.61079883e-004, 0.,
          2.26667873e-003, 0., 4.74133813e-005, 0., 1.08601118e-003, 0.,
          1.07916498e-009, 7.47486204e-003, 3.31659743e-004,
          8.76014936e-004, 3.93037032e-003, 0., 6.56678503e-006,
          7.47321127e-003, 5.68720140e-003, 0., 1.05077079e-005,
          4.18333244e-003, 0., 0., 4.38360684e-003, 8.31251382e-004,
          1.59817305e-003, 0., 1.58772850e-003, 0., 8.11678728e-006, 0.,
          6.27556728e-005, 1.55371687e-004, 7.91717845e-004, 0., 0., 0.,
          0., 0., 1.74038371e-011, 6.47546072e-003, 0., 1.69855542e-003,
          0., 0., 7.27074104e-004, 5.09801507e-003, 2.97772828e-002,
          1.69976738e-005, 4.29159991e-004, 1.69955929e-005, 0., 0.,
          4.07049805e-003, 5.35447039e-002, 4.59165632e-004,
          1.25906523e-003, 0., 0., 0., 2.14942102e-003, 8.27479828e-003,
          2.60047585e-004, 0., 2.46612518e-003, 3.02112475e-003, 0.,
          3.84371233e-005, 0., 4.19426040e-004, 0., 1.65696710e-003, 0.,
          0., 0., 2.36657419e-004, 0., 2.66078580e-003, 1.56018755e-003,
          0., 3.29144939e-004, 0., 4.44889069e-004, 4.09375889e-006, 0.,
          0., 0., 0., 8.98340426e-004, 6.13876712e-003, 0.,
          1.56861308e-004, 0., 0., 1.71978957e-006, 0., 2.44148832e-004,
          2.79646201e-006, 1.24290294e-004, 2.29405146e-003,
          8.85750109e-004, 3.44023458e-004, 1.91715173e-002,
          2.87811714e-003, 3.57094454e-004, 0., 6.07132399e-003,
          6.36325558e-006, 0., 7.35088252e-004, 2.85850954e-003,
          3.75175569e-003, 1.32783065e-002, 5.20646281e-004,
          8.69475189e-005, 0., 0., 2.85748132e-002, 1.92629697e-004,
          3.86627362e-004, 6.05292758e-003, 5.16879279e-003, 0.,
          3.86152911e-004, 0., 1.39477216e-002, 9.23760446e-009, 0., 0.,
          0., 2.37669432e-004, 2.89541688e-008, 0., 0., 0.,
          4.04773073e-006, 0., 2.18457542e-003, 0., 0., 1.18055533e-012,
          3.91308544e-003, 0., 6.43747374e-002, 2.12425877e-009,
          2.04856318e-004, 0., 6.36700448e-003, 9.49484136e-009,
          5.03209978e-002, 0., 0., 3.91243666e-004, 1.24613463e-003,
          5.22764679e-003, 3.20230065e-009, 4.20681085e-004, 0., 0., 0.,
          2.62622780e-004, 0., 1.61384279e-003, 1.46232732e-003,
          8.06320924e-004, 2.08891116e-011, 1.89739768e-003,
          7.75224045e-002, 7.51661370e-004, 5.67407534e-003,
          6.36325558e-006, 0., 1.37514519e-002, 0., 1.03460428e-004, 0.,
          2.07085162e-002, 1.43778398e-005, 3.61250859e-005, 0.,
          7.72716812e-005, 0., 7.18665615e-005, 0., 4.54799877e-003,
          5.89838601e-004, 0., 1.81773689e-003, 1.55904144e-003,
          5.13916928e-003, 0., 0., 1.57290138e-003, 2.83670542e-003,
          4.73314867e-004, 0., 3.19407471e-002, 3.70269817e-007,
          1.51061101e-006, 3.10049136e-003, 3.31482879e-004,
          1.62334286e-003, 0., 2.89541688e-008, 1.59824849e-003, 0., 0.,
          0., 0., 0., 1.11217826e-008, 0., 1.62350028e-004, 0., 0., 0.,
          0., 8.27253098e-004, 0., 6.60676090e-003, 0., 6.14531746e-004,
          0., 6.82227096e-007, 0., 0., 4.56738472e-003, 2.55949612e-006,
          1.58797745e-002, 4.00188332e-003, 3.23782628e-003, 0.,
          4.20555480e-005 ]
      - [ 3.64802731e-003, 1.31684588e-004, 0., 1.07765163e-003,
          1.84098294e-003, 3.53062539e-008, 1.74329500e-003,
          5.42925438e-003, 2.38284143e-003, 4.40711062e-003,
          6.22570587e-005, 7.39221723e-005, 4.05328523e-004,
          1.01761609e-004, 0., 4.21748746e-006, 0., 5.37781231e-003, 0.,
          0., 0., 0., 8.66796123e-004, 5.26800985e-003, 0.,
          3.73376790e-003, 1.03347098e-004, 5.83048561e-004,
          1.31316681e-003, 0., 3.42029966e-006, 1.41213093e-006,
          3.56802434e-006, 4.30456337e-009, 0., 1.13750939e-004,
          5.20791998e-003, 2.83132493e-003, 0., 5.32882396e-008,
          1.83803656e-013, 0., 0., 6.16226171e-004, 1.68990251e-003,
          2.42961414e-006, 8.04287475e-003, 1.43689191e-004,
          9.37004760e-003, 1.02202215e-007, 7.66691483e-006, 0., 0.,
          3.20657296e-006, 0., 0., 3.38354148e-003, 1.28700631e-003, 0.,
          4.81122364e-010, 1.95675628e-010, 9.48547293e-003,
          5.80618401e-011, 7.55679075e-010, 1.08624967e-007,
          1.47357132e-005, 4.49825404e-003, 4.03433852e-003,
          6.47251261e-003, 6.33120217e-005, 3.87975197e-005, 0., 0., 0.,
          1.02361571e-003, 2.69625173e-003, 4.35485155e-004, 0.,
          2.10608612e-003, 0., 3.17107402e-002, 0., 3.52132920e-004, 0.,
          5.69831440e-003, 5.00315875e-002, 9.97122098e-003, 0.,
          4.70512267e-003, 0., 0., 8.53500387e-004, 4.79247700e-003,
          7.27202161e-004, 0., 1.16507108e-004, 0., 0., 0.,
          2.71882582e-003, 2.74059530e-002, 5.37781231e-003,
          2.01906405e-005, 1.42473576e-003, 1.05096831e-003,
          2.23857169e-005, 0., 0., 8.98116850e-005, 3.00700740e-005, 0.,
          3.46173969e-004, 6.66153210e-004, 0., 0., 1.19235347e-005,
          1.77091528e-002, 1.96247804e-003, 0., 3.56493945e-009, 0.,
          6.95951702e-003, 8.45020637e-003, 4.78392513e-003, 0.,
          1.20490107e-009, 4.71544081e-006, 6.69192232e-004, 0.,
          1.62692834e-002, 7.55679075e-010, 0., 6.02103537e-004, 0., 0.,
          0., 5.18658908e-006, 3.21109476e-003, 0., 1.30838864e-002, 0.,
          8.46564863e-003, 6.04518177e-003, 0., 0., 2.14815620e-004, 0.,
          0., 2.08160825e-004, 0., 0., 2.59648709e-006, 0.,
          2.71952432e-003, 0., 5.74782425e-005, 2.32731970e-003,
          2.09088379e-004, 0., 9.36019787e-005, 1.71008031e-003,
          1.56394634e-002, 2.92046322e-003, 1.04807478e-008,
          1.84347808e-008, 0., 0., 1.04190323e-004, 5.49376535e-004, 0.,
          1.91062014e-003, 0., 3.61758066e-005, 0., 1.07817783e-003, 0.,
          1.68535685e-009, 6.54041348e-003, 1.92011893e-003,
          7.76420115e-004, 3.23503884e-003, 0., 6.66185178e-006,
          6.53867610e-003, 7.90203456e-003, 0., 9.73979877e-006,
          3.65953310e-003, 0., 0., 5.05963666e-003, 5.86921640e-004,
          6.07477920e-003, 0., 1.35643862e-003, 0., 7.81140079e-006, 0.,
          7.14310809e-005, 1.27015897e-004, 5.56825986e-003, 0., 0., 0.,
          0., 0., 2.88920190e-011, 5.59269171e-003, 0., 1.39880867e-003,
          0., 0., 6.91269466e-004, 9.35901143e-003, 1.11417538e-002,
          1.44927417e-005, 4.09185974e-004, 1.44899941e-005, 0., 0.,
          3.56952357e-003, 5.52608855e-002, 4.71956591e-004,
          1.00813853e-003, 0., 0., 0., 2.15535262e-003, 1.34611186e-002,
          2.63351889e-004, 0., 2.18139729e-003, 2.65117735e-003, 0.,
          2.91259094e-005, 0., 4.34426678e-004, 0., 7.77786458e-003, 0.,
          0., 0., 1.53797341e-003, 0., 2.32731970e-003, 1.32699287e-003,
          0., 2.66450865e-004, 0., 3.96117568e-004, 4.33984815e-006, 0.,
          0., 0., 0., 3.50659783e-003, 5.27053094e-003, 0.,
          1.47049446e-004, 0., 0., 1.81571374e-006, 0., 1.84567267e-004,
          3.15318334e-006, 9.68448294e-005, 5.91607485e-003,
          5.73789654e-003, 2.62421177e-004, 1.96623523e-002,
          2.38154130e-003, 2.64410803e-004, 0., 5.58554148e-003,
          6.06211916e-006, 0., 7.43619341e-004, 5.48135815e-003,
          8.17255024e-003, 1.18374201e-002, 3.38354148e-003,
          9.62891791e-005, 0., 0., 2.49060914e-002, 1.63369725e-004,
          4.01649188e-004, 5.31087909e-003, 4.34077205e-003, 0.,
          2.97639723e-004, 0., 1.21369800e-002, 1.29370816e-008, 0., 0.,
          0., 1.97021902e-004, 3.53062539e-008, 0., 0., 0.,
          4.31968965e-006, 0., 1.87747157e-003, 0., 0., 1.44711868e-012,
          3.35523323e-003, 0., 5.50248772e-002, 2.92067548e-009,
          1.69608480e-004, 0., 5.47859352e-003, 1.34644962e-008,
          4.57963347e-002, 0., 0., 1.66625355e-003, 1.25210476e-003,
          4.47322987e-003, 4.30456337e-009, 4.17837029e-004, 0., 0., 0.,
          2.20755988e-004, 0., 1.32675725e-003, 1.27779203e-003,
          7.97550310e-004, 3.88125747e-011, 1.56943768e-003,
          6.93371072e-002, 2.33709300e-003, 4.88174753e-003,
          6.06211916e-006, 0., 1.31764496e-002, 0., 8.04179144e-005, 0.,
          1.77612677e-002, 1.32958476e-005, 3.27287526e-005, 0.,
          8.74884354e-005, 0., 7.52149062e-005, 0., 3.87646048e-003,
          4.74414439e-004, 0., 1.50138000e-003, 1.32558076e-003,
          4.50317329e-003, 0., 0., 4.23704227e-003, 7.34353904e-003,
          3.07594682e-003, 0., 2.73977313e-002, 4.34705527e-007,
          1.81611836e-006, 2.71882582e-003, 2.80263572e-004,
          1.49524771e-003, 0., 3.53062539e-008, 1.31302478e-003, 0., 0.,
          0., 0., 0., 1.40213245e-008, 0., 1.52058885e-004, 0., 0., 0.,
          0., 7.66185054e-004, 0., 9.44271497e-003, 0., 6.10921241e-004,
          0., 8.67232018e-007, 0., 0., 3.95344477e-003, 2.42961414e-006,
          1.88249815e-002, 3.50999786e-003, 2.72146729e-003, 0.,
          3.27451671e-005 ]
      - [ 7.32534891e-003, 1.15836260e-003, 0., 3.23665212e-004,
          8.01865302e-004, 3.66932596e-007, 4.26422432e-003,
          6.31473609e-004, 4.31293593e-004, 1.08915687e-004,
          9.87159365e-005, 6.67204877e-005, 1.05163280e-003,
          1.53172732e-004, 0., 2.22698400e-005, 0., 5.83556714e-004, 0.,
          0., 0., 0., 1.27097752e-004, 7.28352403e-004, 0.,
          9.83325765e-004, 2.65285838e-004, 3.07781296e-003,
          2.07327335e-004, 2.77847175e-005, 1.92060452e-005,
          1.43651996e-005, 2.44373696e-005, 6.89680704e-008, 0.,
          1.29191525e-004, 2.71558267e-004, 9.28209920e-004, 0.,
          5.97545466e-007, 1.40496545e-010, 0., 0., 1.15319982e-003,
          1.93751941e-003, 7.94910829e-006, 6.16785279e-003,
          2.91818357e-003, 1.41043952e-002, 6.09160234e-005,
          3.72183822e-005, 0., 0., 1.28700531e-005, 0., 0.,
          1.21493032e-003, 2.82503956e-004, 0., 2.50739998e-008,
          6.57657262e-009, 3.15188058e-003, 3.05411412e-008,
          4.46483419e-008, 1.30076603e-006, 3.23426066e-004,
          3.23462896e-002, 1.33939029e-003, 2.74227303e-003,
          1.71463718e-004, 5.08231242e-005, 0., 0., 0., 3.17589525e-004,
          7.12806685e-003, 1.19787978e-003, 0., 5.01628616e-004, 0.,
          2.85764523e-002, 0., 4.18500800e-004, 0., 1.92989770e-003,
          3.07688303e-002, 6.18558377e-003, 0., 5.50834136e-003, 0., 0.,
          8.97115824e-005, 6.00680884e-004, 8.81581276e-004, 0.,
          1.10533896e-004, 0., 0., 0., 8.03383940e-004, 1.30352024e-002,
          5.83556714e-004, 4.12974878e-005, 2.63127295e-004,
          2.33690417e-003, 4.81725583e-005, 0., 0., 9.37473014e-005,
          5.70176810e-004, 0., 2.99046990e-002, 6.83300057e-003, 0., 0.,
          7.53352970e-006, 1.65404454e-002, 9.81675112e-004, 0.,
          1.16213371e-007, 0., 1.12382332e-002, 1.18428969e-003,
          5.18423913e-004, 0., 9.14805014e-008, 2.72715752e-005,
          1.90738216e-003, 0., 1.85264535e-002, 4.46483419e-008, 0.,
          1.42975301e-002, 0., 0., 0., 3.07424198e-005, 1.42035435e-003,
          0., 6.13739295e-003, 0., 1.55073553e-002, 4.17709351e-004, 0.,
          0., 3.52956849e-004, 0., 0., 4.95833694e-004, 0., 0.,
          1.79813615e-005, 0., 8.26703326e-004, 0., 8.64785252e-005,
          2.06132117e-003, 5.07500372e-004, 0., 6.97117721e-005,
          2.95003690e-003, 2.47900877e-002, 6.69415155e-003,
          1.75937004e-007, 3.66416856e-007, 0., 0., 1.61098884e-004,
          3.86755471e-003, 0., 3.27436486e-003, 0., 2.28717890e-005, 0.,
          2.14366126e-003, 0., 1.64990638e-007, 1.73302763e-003,
          8.98371916e-004, 1.12332252e-003, 5.07061603e-004, 0.,
          3.05231406e-005, 1.72355270e-003, 5.59316715e-003, 0.,
          2.77408380e-005, 9.57739481e-004, 0., 0., 2.22782488e-003,
          3.44337983e-004, 4.71975189e-004, 0., 5.65681432e-004, 0.,
          2.75274506e-005, 0., 4.56545502e-004, 1.50617838e-004,
          5.89158526e-003, 0., 0., 0., 0., 0., 5.69443914e-009,
          1.02680502e-002, 2.77847175e-005, 1.73940251e-004, 0., 0.,
          1.28090486e-003, 1.13676554e-002, 1.29779968e-002,
          2.52928712e-005, 1.23370683e-003, 2.53223243e-005, 0., 0.,
          1.43802061e-003, 6.84194490e-002, 1.24362111e-003,
          1.65438643e-004, 0., 0., 0., 1.77540071e-002, 1.50310444e-002,
          2.49040173e-003, 0., 1.19512500e-002, 1.14429733e-002, 0.,
          1.81443411e-005, 0., 1.04612845e-003, 0., 1.73268875e-003, 0.,
          0., 0., 1.71868026e-003, 0., 2.06132117e-003, 4.15143091e-004,
          0., 2.39020635e-004, 0., 4.35364112e-004, 2.34226827e-005, 0.,
          0., 0., 0., 4.31632763e-003, 7.42019154e-004, 0.,
          3.60263482e-004, 0., 0., 9.63981347e-006, 0., 1.08282155e-004,
          2.41507641e-005, 6.22525331e-005, 7.22481171e-003,
          1.42184943e-002, 7.94065010e-004, 2.47198027e-002,
          4.17464558e-004, 1.52757842e-004, 0., 1.47490297e-002,
          2.01998082e-005, 0., 2.12909817e-003, 6.17162511e-003,
          4.56835702e-003, 2.35580802e-002, 1.21493032e-003,
          1.54535891e-002, 0., 0., 2.82438248e-002, 2.36094449e-004,
          8.64753034e-004, 4.83548874e-003, 8.96260724e-004, 0.,
          3.94792849e-004, 0., 3.25989537e-003, 2.72023783e-007, 0., 0.,
          0., 2.45244039e-004, 3.66932596e-007, 0., 2.77847175e-005, 0.,
          3.68780093e-005, 0., 2.00695079e-003, 0., 0., 6.26473484e-010,
          5.27678384e-003, 1.34798450e-010, 1.85671784e-002,
          5.46644756e-008, 1.76844493e-004, 0., 1.49891188e-003,
          2.91396958e-007, 8.04642215e-002, 0., 0., 1.90325326e-003,
          6.28065784e-003, 9.03521650e-005, 6.89680704e-008,
          2.93087098e-003, 0., 0., 0., 3.01887165e-004, 0.,
          3.05296388e-004, 2.16396083e-003, 5.07881958e-003,
          2.74535381e-008, 5.42318041e-004, 7.18897581e-002,
          1.74222176e-003, 4.33350960e-003, 2.01998082e-005, 0.,
          8.10717233e-003, 0., 7.11314715e-005, 0., 8.14664585e-004,
          3.73963412e-005, 8.20501882e-005, 0., 2.00465648e-003, 0.,
          3.74141498e-004, 0., 2.44122720e-003, 3.29210394e-004, 0.,
          2.13760810e-004, 4.00772173e-004, 4.45024669e-003, 0., 0.,
          1.30462996e-003, 3.15850950e-003, 3.43738799e-003, 0.,
          3.18538072e-003, 3.71464535e-006, 1.72300533e-005,
          8.03383940e-004, 2.14811019e-003, 1.81356620e-003, 0.,
          3.66932596e-007, 2.20789370e-004, 0., 0., 0., 0., 0.,
          2.01663269e-007, 0., 3.73310904e-004, 0., 0., 0., 0.,
          1.01827714e-003, 0., 6.98696170e-003, 0., 9.93648893e-004, 0.,
          2.08713231e-003, 0., 0., 1.13553996e-003, 7.94910829e-006,
          1.50708975e-002, 3.59832007e-003, 2.26223818e-003, 0.,
          3.20160216e-005 ]
      - [ 3.53578571e-003, 0., 6.93446054e-005, 4.70795328e-007,
          5.47946943e-003, 0., 7.55737165e-006, 5.86161946e-007,
          8.62348534e-004, 1.29826192e-003, 5.45694865e-003,
          2.06048694e-003, 6.52114511e-004, 2.24837102e-003,
          7.60285911e-005, 2.07386608e-003, 2.80686258e-003,
          3.14478044e-008, 5.94197409e-005, 1.94923336e-006,
          3.13004223e-003, 4.06039044e-006, 1.97505642e-006,
          5.00011200e-004, 0., 8.26610412e-005, 1.34843471e-003,
          2.16206559e-003, 5.23916585e-003, 0., 8.48990679e-003,
          1.50053902e-003, 2.87273875e-003, 0., 0., 2.57641921e-004,
          8.92749813e-004, 1.86174584e-004, 0., 5.71964355e-003,
          6.88070804e-006, 7.50777137e-004, 0., 7.39341485e-005,
          3.40728320e-006, 3.91415274e-003, 1.10025136e-002,
          7.54296605e-004, 5.03878924e-004, 0., 1.71842188e-007, 0.,
          1.31583982e-003, 6.99945306e-003, 0., 6.40041617e-006,
          7.46275236e-006, 1.96440751e-003, 0., 3.87535780e-004,
          3.70941288e-003, 1.58412277e-003, 0., 3.34123215e-005,
          2.86915037e-003, 4.03784634e-006, 8.96108896e-003,
          2.89153820e-003, 2.23952578e-004, 4.01057350e-003,
          7.94845517e-004, 0., 1.32530586e-005, 2.84116959e-005,
          3.15036462e-003, 1.33757303e-002, 2.09282339e-003, 0.,
          6.36710029e-004, 0., 4.00640070e-002, 8.06354044e-004,
          1.65510224e-003, 0., 5.20184031e-003, 2.95087770e-002,
          1.78357046e-002, 2.24692305e-003, 2.46895961e-005, 0.,
          2.26048705e-005, 3.78222275e-003, 6.92667533e-003,
          1.95302756e-003, 0., 6.59710553e-004, 3.79133773e-008,
          2.07356766e-006, 1.31606089e-003, 4.87136504e-007,
          1.49928909e-002, 1.36266334e-003, 3.13979086e-007,
          2.46706349e-003, 6.76661404e-003, 2.75855698e-003, 0.,
          3.17135220e-003, 5.13413362e-003, 3.79838212e-003,
          3.36829398e-005, 5.86163253e-003, 5.58841799e-004,
          7.58209308e-006, 1.24993157e-005, 3.75744276e-005,
          1.96536130e-005, 1.62324554e-003, 5.83362726e-006,
          3.47697083e-003, 0., 5.93519025e-003, 3.46807035e-004,
          2.49291700e-003, 0., 1.32375192e-007, 1.42605868e-005,
          5.89683373e-003, 2.55772875e-006, 1.42557418e-003,
          1.62362048e-005, 9.48353772e-007, 5.05993469e-003,
          7.75893641e-005, 4.18140298e-005, 4.80236437e-008,
          6.06703281e-004, 3.58557422e-003, 0., 4.20431467e-003, 0.,
          1.93418376e-002, 3.11117596e-003, 0., 1.86892156e-003,
          2.34066698e-004, 6.00881833e-008, 1.86168691e-005,
          4.95164841e-003, 2.62480142e-004, 2.44800118e-003,
          3.31077422e-003, 6.54151427e-006, 1.88366720e-003,
          3.92687216e-005, 1.21859957e-004, 2.38292105e-003,
          4.62456467e-003, 0., 2.96798353e-005, 2.43740828e-006,
          1.47812460e-002, 4.74907039e-003, 1.24796570e-004,
          1.19593425e-003, 0., 3.53409064e-006, 7.42743374e-004,
          2.81636803e-005, 5.49318393e-005, 2.42877123e-003,
          6.01888096e-005, 5.60949149e-004, 0., 1.90011179e-003,
          4.00061399e-005, 5.05997392e-004, 9.62113682e-003,
          3.98085685e-003, 8.60348716e-003, 3.01718386e-003, 0.,
          3.47922416e-003, 1.95798075e-005, 1.24828701e-004, 0.,
          2.18612491e-004, 5.14210993e-003, 2.64179613e-003, 0.,
          9.56154801e-003, 1.94173004e-003, 3.03777214e-003,
          4.80236437e-008, 1.85211201e-003, 0., 2.36213161e-003,
          1.13640015e-003, 4.01699403e-003, 2.30496726e-003,
          7.40962787e-006, 8.42328518e-007, 0., 0., 1.84795164e-004,
          6.34258322e-005, 9.50362573e-006, 6.54738443e-003,
          1.82574149e-003, 1.72617706e-003, 0., 2.47253268e-003,
          8.01286020e-004, 9.34790168e-003, 1.14992913e-002,
          8.90178126e-005, 2.22263252e-003, 3.78186924e-005,
          4.26956161e-004, 1.13756258e-007, 1.50616956e-003,
          2.23187320e-002, 6.81413861e-004, 4.03720260e-005, 0., 0.,
          1.91419076e-007, 2.09823530e-003, 5.12332050e-003,
          2.22500693e-003, 0., 2.72746733e-003, 1.22028934e-002, 0.,
          4.81798488e-004, 9.01501189e-005, 5.73097030e-004, 0.,
          5.14310086e-003, 0., 0., 0., 2.20154616e-005, 1.21147912e-006,
          1.01758318e-003, 3.34123215e-005, 0., 2.47208052e-003,
          9.44161948e-005, 1.50744501e-003, 3.72908049e-004, 0., 0.,
          1.70290677e-005, 4.15439485e-004, 2.29597208e-003,
          3.50467199e-005, 0., 2.76180390e-006, 1.39269074e-002, 0.,
          9.93103095e-006, 0., 1.14886684e-003, 2.78854789e-003,
          2.75320117e-003, 1.33043611e-002, 2.65300577e-003,
          4.48754217e-005, 2.73371469e-002, 4.24556638e-004,
          5.88918141e-008, 6.29137821e-006, 1.28536010e-002, 0.,
          3.83295846e-004, 8.14852028e-005, 9.03191976e-004,
          3.48520512e-003, 4.69460757e-003, 3.84521991e-005,
          1.38228582e-002, 1.01763426e-005, 1.72618916e-003,
          2.51284447e-002, 2.44819898e-006, 2.08564545e-003,
          1.95949199e-003, 2.62948778e-003, 2.04090981e-007,
          1.35651615e-004, 1.87540845e-005, 7.29109813e-003,
          5.37889491e-007, 0., 2.22832925e-004, 0., 2.31665745e-003,
          3.25902249e-004, 0., 1.32714958e-005, 2.28506851e-005,
          3.14478044e-008, 0., 1.66314770e-004, 1.40640225e-006, 0.,
          1.01226510e-006, 6.09124592e-003, 0., 1.59742329e-002,
          1.86142744e-004, 1.27977028e-005, 0., 1.36896605e-002,
          8.28314980e-004, 3.54679227e-002, 1.58210797e-003,
          5.09760715e-003, 3.72954668e-003, 1.54516054e-003,
          4.71507944e-003, 1.86081234e-005, 4.58355673e-004, 0.,
          1.03707137e-002, 0., 6.21210644e-003, 0., 2.74032750e-003,
          2.29256861e-002, 1.10702194e-005, 1.00650354e-007,
          9.37198941e-003, 6.25318289e-002, 2.21698079e-003,
          7.69033613e-006, 4.00225836e-005, 0., 1.94313116e-002,
          2.68476815e-005, 1.21743760e-004, 0., 7.22980767e-004,
          2.35257958e-005, 2.97750300e-003, 0., 1.49235863e-003,
          1.68574195e-006, 2.56809895e-003, 1.30637677e-003,
          2.43108906e-003, 5.09766280e-004, 5.62003115e-004,
          1.29990617e-003, 1.13693171e-003, 6.91067474e-003, 0., 0.,
          5.86006930e-003, 1.97476940e-003, 2.24794116e-004,
          3.25206634e-006, 7.63392868e-003, 3.58879566e-003, 0.,
          6.29137821e-006, 2.90916723e-005, 1.94022752e-004,
          2.04339926e-003, 0., 2.92840214e-005, 0., 2.90544773e-003,
          3.38045975e-005, 0., 0., 2.56307423e-004, 5.84622758e-005,
          4.47532657e-005, 0., 0., 0., 3.43087740e-005, 2.54747551e-003,
          1.20239647e-003, 4.25517745e-003, 1.12792559e-003,
          8.21156427e-004, 2.49033258e-003, 2.82647205e-003,
          1.66017533e-004, 1.22198962e-005, 6.40162441e-004,
          9.39326361e-004, 6.05697918e-004, 3.22569440e-006,
          1.42500410e-003, 0., 3.35860648e-003 ]
      - [ 6.92535006e-003, 0., 8.65310722e-006, 5.71978767e-008,
          1.40474662e-002, 0., 2.89339165e-004, 7.53160805e-008,
          5.47104143e-003, 2.50597368e-003, 2.04060972e-003,
          1.29358715e-003, 7.94670850e-005, 2.23080069e-003,
          7.41939293e-005, 1.27552170e-003, 5.03489748e-004,
          4.06725320e-009, 1.70315307e-005, 2.46319019e-007,
          5.96583996e-004, 1.12456314e-006, 2.68168492e-007,
          1.55672940e-004, 0., 1.26719649e-004, 6.24409877e-004,
          4.58819186e-003, 5.80552442e-004, 0., 1.79555658e-002,
          2.72434641e-004, 2.12865844e-002, 0., 0., 5.37967571e-005,
          2.12418241e-003, 3.70223628e-004, 0., 1.50074940e-002,
          3.44823697e-004, 6.11787022e-004, 1.10767921e-003,
          1.66141707e-003, 4.97835254e-006, 4.77807771e-004,
          1.04503110e-002, 9.58951059e-005, 3.55580519e-003, 0.,
          2.89075501e-008, 0., 2.41032569e-003, 3.09755234e-003, 0.,
          9.59878435e-007, 2.02854659e-004, 9.65363346e-003, 0.,
          4.35431393e-005, 2.25683485e-004, 5.66511357e-004, 0.,
          4.96508392e-006, 1.51430344e-004, 1.91828283e-003,
          8.97553936e-003, 2.83834781e-003, 2.13871570e-003,
          8.52861442e-003, 1.77410460e-004, 0., 1.22257070e-005,
          2.26818338e-005, 2.86214607e-004, 7.77010340e-003,
          2.30252417e-003, 0., 2.39903922e-003, 0., 1.84150860e-002,
          1.06102764e-003, 9.98293702e-003, 0., 4.88833897e-003,
          1.33067928e-002, 2.87271291e-002, 1.13709044e-004,
          1.00434385e-003, 0., 4.68922372e-006, 1.67962105e-003,
          3.37594189e-003, 1.03752071e-004, 0., 1.82618198e-004,
          4.56072824e-009, 1.14021077e-006, 8.12775164e-004,
          6.19330081e-008, 5.67884324e-003, 1.66574071e-004,
          3.77985820e-008, 2.45079951e-004, 5.92741184e-003,
          1.91889470e-003, 1.05132489e-003, 2.14510699e-004,
          1.10528606e-003, 6.25665358e-004, 4.07566768e-006,
          1.58480648e-003, 2.37775967e-003, 1.23104610e-006,
          3.40821907e-006, 1.24863109e-005, 2.25371896e-005,
          2.26197095e-004, 6.80920834e-007, 7.46848527e-004, 0.,
          5.67476405e-003, 8.07387260e-005, 5.18320419e-004, 0.,
          1.63474798e-008, 5.52865004e-006, 7.41229043e-004,
          3.05048729e-007, 1.64031502e-004, 3.81217865e-006,
          1.15862420e-007, 3.13105900e-003, 8.68904681e-006,
          4.33633773e-004, 5.87178395e-009, 6.50363415e-003,
          2.09494348e-004, 0., 3.54495016e-004, 6.36738609e-004,
          1.79350469e-002, 1.37988180e-002, 0., 2.67293479e-004,
          5.84521185e-005, 7.20496685e-009, 1.35354221e-005,
          4.45557293e-004, 2.88178591e-004, 4.36668633e-004,
          5.18539548e-003, 7.90266085e-007, 1.87478936e-003,
          1.04262472e-005, 4.25607650e-005, 2.24475545e-004,
          5.44498733e-004, 0., 3.03484569e-003, 1.21322000e-006,
          1.16302278e-002, 1.13697385e-003, 6.05897233e-003,
          2.44234363e-003, 0., 1.05174252e-006, 8.39539134e-005,
          1.91769534e-004, 2.72416859e-003, 6.14560558e-004,
          6.70032023e-006, 1.75349019e-003, 0., 2.32107806e-004,
          5.02629064e-006, 3.22978012e-004, 4.16595070e-003,
          7.04361999e-004, 1.90180889e-003, 2.13850965e-003, 0.,
          7.60895293e-003, 5.20537651e-006, 4.09350498e-003, 0.,
          4.93260086e-005, 9.08963091e-004, 1.75327848e-004, 0.,
          4.61166492e-003, 2.43095681e-004, 2.84770358e-004,
          5.87178395e-009, 5.17961918e-004, 0., 9.42428131e-003,
          7.11907051e-004, 3.55876808e-004, 7.77521404e-004,
          1.04163610e-006, 1.01516257e-007, 0., 0., 4.43248282e-005,
          3.25196706e-005, 5.71259716e-006, 1.33059099e-002,
          5.03595546e-003, 7.14496244e-003, 0., 4.46368242e-004,
          9.95998271e-004, 1.31534636e-002, 1.76364239e-002,
          8.05714075e-003, 1.34906979e-004, 2.02511037e-005,
          4.80993876e-005, 1.79808630e-005, 2.42056660e-004,
          2.05217637e-002, 4.99139889e-004, 1.97774316e-005, 0., 0.,
          1.14577077e-003, 2.54933885e-003, 1.81937963e-002,
          5.12243900e-003, 0., 1.22390054e-002, 3.72055406e-003, 0.,
          5.49485667e-005, 3.00737574e-005, 4.87894285e-004, 0.,
          1.57216713e-002, 0., 0., 0., 2.92804543e-006, 1.43630857e-007,
          2.31563288e-004, 7.49578176e-004, 0., 1.70517058e-004,
          2.47017341e-003, 4.17530246e-004, 9.35675343e-005, 0., 0.,
          4.78553739e-006, 1.42451376e-004, 7.33140437e-003,
          1.13292062e-005, 0., 3.46606356e-007, 3.16946278e-003, 0.,
          1.52176999e-005, 0., 1.60983705e-004, 4.21656482e-003,
          2.83307070e-003, 9.11170617e-003, 3.91041132e-004,
          5.79516776e-003, 2.60167457e-002, 6.65850530e-005,
          7.06019909e-009, 1.52476446e-006, 5.40813524e-003, 0.,
          6.72180031e-005, 1.20229297e-003, 2.90456740e-003,
          2.42857888e-004, 5.78015018e-003, 8.86459544e-004,
          1.59618706e-002, 2.20763150e-006, 1.03871396e-004,
          2.86807790e-002, 1.22259075e-006, 8.21555592e-003,
          5.34651801e-003, 5.00998739e-003, 3.01938172e-008,
          3.99594195e-003, 2.72829766e-006, 6.98556565e-003,
          6.47515250e-008, 0., 1.02322389e-004, 0., 4.18196199e-003,
          1.15052902e-003, 0., 2.50330304e-005, 2.20079601e-005,
          4.06725320e-009, 0., 9.36589713e-005, 1.70669679e-007, 0.,
          1.33723262e-007, 3.14209680e-003, 0., 5.70094772e-003,
          8.28375341e-005, 1.87187402e-006, 0., 1.00051900e-002,
          1.06088788e-004, 3.67810130e-002, 3.95812280e-003,
          2.55410559e-003, 2.81156367e-003, 2.04907090e-004,
          1.28645007e-003, 4.11293331e-006, 4.18525393e-004, 0.,
          3.73752764e-003, 0., 1.82928238e-003, 0., 2.39481917e-003,
          1.86221376e-002, 1.31361719e-006, 1.27658843e-008,
          9.87028144e-003, 6.50900006e-002, 6.17795158e-004,
          7.51402695e-003, 1.06953557e-005, 0., 9.33102798e-003,
          3.36947778e-006, 3.71369009e-004, 0., 4.40690573e-003,
          3.85493149e-006, 1.00926519e-003, 0., 1.59246568e-003,
          2.06701117e-007, 9.65957157e-003, 3.97240743e-004,
          4.43375995e-003, 6.69330591e-004, 1.23624224e-003,
          5.47764171e-003, 7.09881727e-003, 1.47697376e-003, 0., 0.,
          1.40393572e-003, 2.54034600e-003, 1.26531650e-003,
          4.29526267e-007, 1.49338450e-002, 5.72954363e-004, 0.,
          1.52476446e-006, 1.65803428e-003, 2.14184729e-005,
          4.91657481e-003, 0., 3.07437040e-005, 0., 3.97277268e-004,
          4.09049971e-006, 0., 0., 3.92155343e-005, 6.49667481e-006,
          2.63384590e-003, 0., 0., 0., 5.40016699e-005, 3.38827982e-003,
          7.33822584e-004, 7.68475980e-003, 1.01047510e-003,
          1.07475076e-004, 2.10626778e-004, 5.15439955e-004,
          2.80570166e-005, 1.58407423e-003, 1.17357165e-004,
          1.05122970e-004, 9.17684566e-003, 4.24659959e-007,
          2.59669870e-003, 0., 5.30859921e-003 ]
      - [ 8.66667659e-004, 1.16331375e-006, 0., 0., 3.82538047e-003, 0.,
          5.86240276e-006, 1.08080496e-006, 1.99469461e-004,
          3.30777392e-002, 0., 5.67182712e-003, 3.74953775e-003, 0., 0.,
          0., 0., 0., 0., 1.60712108e-003, 0., 0., 2.89362197e-006, 0.,
          0., 0., 2.63370634e-006, 2.58024016e-007, 0., 0., 0., 0., 0.,
          0., 8.28054070e-008, 0., 1.29068474e-004, 1.29068474e-004, 0.,
          9.44436900e-003, 8.59283749e-003, 0., 0., 0., 0., 0., 0., 0.,
          2.57712411e-008, 1.08080496e-006, 0., 0., 0., 5.63292298e-003,
          0., 0., 3.19423465e-009, 0., 0., 0., 3.22007053e-002,
          1.84918661e-003, 0., 0., 0., 9.44657251e-003, 4.31739800e-002,
          0., 8.70106405e-008, 3.24657594e-006, 0., 0., 0., 0., 0.,
          2.94608355e-004, 3.91054229e-004, 0., 0., 0., 8.59086231e-006,
          4.75520315e-003, 3.07860365e-003, 0., 1.17713319e-006,
          2.77136303e-002, 1.27700074e-002, 0., 1.20265395e-005, 0.,
          2.18713248e-009, 3.51787793e-010, 8.14388692e-003, 0., 0., 0.,
          0., 0., 8.28054070e-008, 7.92922261e-009, 6.63164258e-003, 0.,
          0., 0., 0., 5.18799084e-007, 0., 0., 0., 1.05054649e-002, 0.,
          0., 1.82381586e-006, 0., 0., 0., 0., 0., 0., 0., 0.,
          6.96528878e-006, 2.58612186e-002, 2.63370634e-006, 0., 0., 0.,
          5.82084339e-003, 0., 0., 0., 0., 1.29491165e-002, 0., 0., 0.,
          0., 0., 0., 0., 0., 1.43261086e-002, 4.05827025e-003, 0., 0.,
          6.48279042e-010, 0., 1.22036505e-003, 0., 1.11398135e-008, 0.,
          0., 0., 3.24657594e-006, 0., 0., 0., 0., 0., 0., 0.,
          2.80939899e-002, 1.60312155e-007, 3.51948850e-003,
          5.17269224e-003, 0., 0., 0., 5.63293276e-003, 0.,
          9.05084889e-003, 0., 3.07860365e-003, 5.18799084e-007, 0., 0.,
          0., 0., 0., 0., 0., 0., 0., 0., 1.08157480e-002, 0.,
          2.18713248e-009, 0., 0., 0., 8.95611197e-003, 2.18713248e-009,
          0., 0., 0., 0., 0., 0., 9.99214378e-010, 0., 4.05885093e-003,
          0., 0., 0., 0., 0., 4.55849397e-004, 2.93889079e-005, 0., 0.,
          0., 0., 3.74953775e-003, 6.91536581e-003, 8.67138326e-004, 0.,
          1.29068474e-004, 0., 0., 0., 5.18667884e-003, 6.67432249e-002,
          0., 0., 0., 0., 0., 4.50399844e-003, 2.40014791e-002, 0., 0.,
          1.28578441e-002, 3.53531232e-010, 0., 3.74954892e-003, 0.,
          2.57692154e-004, 0., 0., 0., 0., 0., 0., 0., 0., 0., 0., 0.,
          0., 0., 3.77423078e-007, 0., 0., 0., 0., 5.68629615e-003, 0.,
          0., 0., 2.57476972e-006, 0., 0., 0., 4.05187998e-003, 0., 0.,
          0., 5.76111177e-007, 5.43817123e-006, 2.99873799e-002,
          1.44690230e-005, 0., 0., 3.27507081e-003, 0., 0., 0.,
          7.03898259e-004, 0., 2.26048138e-002, 0., 3.07980952e-009, 0.,
          0., 2.53526121e-002, 0., 0., 2.47416989e-004, 8.49399697e-008,
          0., 3.91054229e-004, 0., 0., 1.82381586e-006, 0., 0., 0., 0.,
          3.91054229e-004, 0., 2.36285558e-007, 0., 0., 0., 0.,
          1.29068474e-004, 0., 0., 4.91133891e-003, 0., 6.81104488e-004,
          0., 5.89006163e-007, 0., 1.92774250e-003, 0., 1.17338695e-001,
          3.91054229e-004, 0., 0., 0., 0., 0., 4.82489327e-007, 0., 0.,
          0., 0., 0., 1.29068474e-004, 0., 0., 0., 0., 1.29158512e-001,
          0., 3.00100393e-004, 1.99469461e-004, 0., 3.74953775e-003,
          9.44436900e-003, 3.51511233e-007, 0., 0., 2.63370634e-006, 0.,
          0., 0., 0., 3.99630703e-002, 2.52638216e-007, 0.,
          9.20204855e-007, 0., 5.67353796e-003, 0., 6.32522255e-003, 0.,
          0., 0., 4.05130535e-003, 0., 0., 7.75839901e-004,
          8.50783754e-003, 0., 8.28054070e-008, 0., 6.33002631e-003,
          3.11769691e-006, 0., 0., 0., 3.18078697e-002, 0.,
          2.01464002e-003, 0., 0., 0., 0., 0., 0., 0., 0., 0.,
          6.32304791e-003, 6.38269028e-003, 0., 3.91054229e-004, 0., 0.,
          1.29068474e-004, 0., 0., 0., 1.37384944e-002, 1.10203699e-004,
          3.91844747e-004, 0., 0. ]
      - [ 1.33641763e-007, 0., 0., 0., 3.50070389e-011, 0., 0.,
          9.58767643e-009, 0., 6.96754141e-005, 0., 0., 0., 0., 0., 0.,
          0., 0., 0., 8.65656330e-006, 0., 0., 0., 0., 0., 0., 0.,
          9.58767643e-009, 0., 0., 0., 0., 0., 0., 0., 0.,
          8.84202620e-007, 0., 0., 0., 0., 0., 0., 0., 0., 0., 0.,
          4.73305772e-005, 6.49786089e-004, 3.60227727e-006, 0., 0., 0.,
          0., 0., 0., 2.06118660e-008, 0., 0., 0., 0., 2.01545544e-002,
          0., 0., 0., 0., 1.49410022e-002, 0., 0., 0., 0., 0., 0., 0.,
          0., 2.53437960e-009, 0., 0., 0., 0., 3.71640660e-002, 0., 0.,
          0., 2.74629343e-007, 5.33299968e-002, 1.34217089e-006, 0.,
          4.46356978e-008, 0., 0., 0., 0., 0., 0., 0., 8.43802610e-008,
          0., 0., 0., 1.57296211e-002, 0., 0., 0., 0., 2.12735429e-008,
          0., 0., 0., 9.56480974e-008, 0., 0., 0., 0., 0.,
          1.59929277e-005, 0., 0., 0., 7.25647487e-006, 0.,
          1.46486698e-007, 0., 0., 0., 0., 5.23773842e-002,
          3.10501918e-008, 0., 2.01545544e-002, 0., 0., 8.81837506e-004,
          0., 9.58767643e-009, 0., 2.68559830e-007, 0., 0.,
          2.48905513e-002, 0., 7.59048108e-003, 0., 0., 2.14323435e-007,
          1.20230055e-007, 0., 0., 0., 3.89863562e-004, 0., 0., 0., 0.,
          0., 0., 0., 0., 0., 0., 0., 4.45641199e-004, 2.67418852e-008,
          0., 0., 0., 0., 0., 0., 0., 1.94931775e-003, 0.,
          4.70306531e-008, 0., 0., 0., 0., 0., 0., 0., 0., 0., 0., 0.,
          1.25738594e-003, 0., 0., 0., 0., 0., 1.44128818e-002, 0., 0.,
          0., 0., 0., 0., 0., 0., 0., 8.84202620e-007, 0., 0., 0., 0.,
          0., 3.89863562e-004, 1.53280236e-003, 0., 0., 0., 0., 0.,
          1.32275140e-002, 2.67418852e-008, 0., 0., 0., 0., 0., 0.,
          7.07568179e-005, 0., 0., 0., 0., 0., 9.45190148e-010,
          6.35278299e-002, 0., 0., 0., 1.05021131e-010, 0., 0., 0., 0.,
          0., 0., 0., 0., 0., 0., 0., 0., 0., 0., 3.60227727e-006, 0.,
          0., 5.07466247e-008, 0., 0., 0., 3.50070389e-011,
          4.70306531e-008, 9.58767643e-009, 0., 0., 0., 0., 0., 0., 0.,
          0., 0., 0., 2.21217853e-008, 3.25712201e-004, 1.31751016e-001,
          0., 0., 0., 5.17474674e-002, 0., 0., 0., 0., 0.,
          8.81852990e-004, 0., 0., 0., 0., 1.53261110e-001, 0., 0.,
          1.56190945e-005, 1.93015467e-006, 0., 4.43299767e-004, 0.,
          1.87214848e-008, 0., 0., 0., 0., 0., 0., 0., 0., 0.,
          3.89863562e-004, 0., 0., 0., 0., 0., 0., 0., 5.43591455e-002,
          0., 0., 3.10366777e-005, 0., 0., 2.73842420e-002, 0., 0., 0.,
          0., 0., 0., 0., 0., 0., 0., 0., 0., 0., 0., 0., 0., 0.,
          1.70544147e-001, 0., 1.57184292e-008, 0., 0., 0., 0., 0., 0.,
          0., 0., 1.75463093e-008, 8.31615637e-007, 0., 0.,
          8.37338447e-008, 0., 0., 0., 0., 2.66745452e-008, 0.,
          1.11455643e-006, 0., 0., 0., 0., 0., 0., 1.48016708e-002, 0.,
          0., 2.64550257e-003, 3.04621831e-002, 0., 0., 0., 0., 0., 0.,
          0., 0., 0., 0., 0., 0., 0., 0., 0., 0., 0., 0., 0., 0., 0., 0.,
          1.56718288e-002, 0., 0., 0., 1.54854515e-005, 2.90642147e-005,
          0., 0., 7.10747872e-006, 0. ]
      - [ 2.17016888e-004, 0., 0., 0., 4.25273502e-005, 0., 0.,
          3.75471245e-005, 0., 3.57297586e-006, 0., 2.15229898e-006, 0.,
          0., 0., 0., 1.19737464e-007, 0., 0., 3.31697578e-004, 0., 0.,
          0., 1.19737464e-007, 0., 0., 0., 2.70379763e-009, 0., 0., 0.,
          0., 0., 0., 0., 0., 2.84041403e-006, 0., 0., 0.,
          2.82367068e-006, 0., 0., 0., 0., 0., 3.47222260e-004,
          1.79239106e-003, 2.48919986e-002, 2.11820570e-005, 0., 0., 0.,
          0., 0., 0., 2.61685841e-007, 0., 0., 0., 0., 3.03971744e-003,
          0., 0., 0., 0., 9.57484590e-004, 0., 0., 0., 0., 0., 0., 0.,
          0., 6.61855850e-008, 0., 0., 0., 0., 1.19311968e-003, 0., 0.,
          0., 6.80213859e-008, 3.92050622e-003, 1.90571773e-005, 0.,
          2.16090861e-008, 0., 0., 0., 0., 0., 0., 0., 1.51876662e-008,
          0., 0., 0., 2.05330942e-002, 0., 0., 0., 0., 1.93939513e-008,
          0., 0., 0., 1.14047843e-005, 0., 0., 0., 0., 0.,
          3.26094693e-007, 0., 0., 0., 1.47959014e-007, 0.,
          9.52005497e-009, 5.91029277e-007, 0., 0., 0., 2.10109982e-003,
          2.42786075e-004, 0., 3.05286981e-003, 0., 0., 6.47427951e-005,
          0., 8.10181700e-006, 0., 1.02603926e-005, 0., 0.,
          1.54918339e-003, 0., 4.70286992e-004, 0., 0., 4.37003989e-009,
          5.03026831e-006, 0., 0., 0., 1.49414707e-002, 0., 0., 0., 0.,
          0., 0., 0., 0., 0., 0., 3.59769183e-006, 1.74856540e-002,
          5.55418644e-008, 0., 0., 0., 0., 0., 0., 0., 7.46751130e-002,
          0., 5.55380364e-009, 0., 0., 0., 0., 0., 0., 0., 0., 0., 0.,
          0., 4.37366068e-002, 0., 0., 0., 0., 0., 4.44862731e-002, 0.,
          2.32464045e-005, 0., 0., 0., 0., 0., 4.87356101e-006, 0.,
          1.81607867e-008, 0., 0., 0., 0., 0., 1.49610126e-002,
          2.49537826e-002, 0., 0., 0., 0., 0., 7.72002211e-004,
          4.00203220e-007, 0., 0., 0., 0., 0., 0., 1.77944812e-003, 0.,
          0., 0., 0., 0., 4.16729716e-004, 2.78015714e-002, 0., 0., 0.,
          2.81127477e-008, 0., 0., 0., 0., 0., 0., 0., 0., 0., 0., 0.,
          0., 0., 0., 7.34501810e-008, 0., 0., 4.70062456e-004, 0., 0.,
          0., 8.02463731e-008, 3.47227789e-004, 2.70379763e-009, 0., 0.,
          0., 0., 3.47222260e-004, 0., 0., 0., 0., 0., 3.47280467e-004,
          1.67301441e-005, 1.01786770e-001, 0., 0., 0., 6.94279000e-003,
          0., 0., 0., 5.25690460e-008, 0., 5.23543204e-005, 0., 0., 0.,
          0., 6.57573715e-002, 0., 0., 2.94862707e-006, 7.39806346e-005,
          4.31421086e-007, 9.03885029e-006, 0., 1.42500289e-009,
          6.80728590e-006, 0., 0., 0., 0., 0., 0., 9.78019671e-007, 0.,
          1.49350232e-002, 0., 0., 0., 0., 0., 0., 1.57732643e-006,
          4.48373556e-002, 0., 0., 6.32835679e-007, 4.35516938e-007, 0.,
          8.36078674e-002, 0., 0., 0., 1.42007286e-006, 3.47222260e-004,
          0., 0., 0., 0., 0., 0., 0., 0., 0., 0., 0., 0.,
          3.26416075e-001, 0., 8.13064318e-008, 0., 0., 3.48879868e-004,
          0., 1.02245019e-006, 0., 0., 0., 1.90966034e-008,
          3.47382780e-008, 4.16666706e-004, 0., 2.05926924e-007, 0., 0.,
          0., 0., 1.65816198e-006, 0., 2.33362130e-008, 0., 0., 0.,
          4.45308814e-007, 0., 0., 1.83412824e-002, 0., 0.,
          1.54320980e-004, 2.51711998e-003, 0., 0., 0., 0., 0., 0., 0.,
          0., 0., 0., 0., 2.82367068e-006, 0., 0., 0., 1.46615733e-007,
          0., 0., 2.93111697e-007, 0., 0., 0., 9.75411735e-004, 0., 0.,
          0., 3.15747286e-007, 1.39307413e-005, 0., 0., 1.44920989e-007,
          0. ]
      - [ 6.48227800e-003, 0., 0., 0., 0., 0., 0., 1.51415691e-007, 0.,
          9.20632854e-004, 0., 0., 1.13401422e-002, 0., 0., 0., 0., 0.,
          0., 1.49404732e-004, 0., 0., 0., 0., 0., 0., 0.,
          1.51415691e-007, 0., 0., 0., 0., 0., 0., 0., 0.,
          1.46192515e-005, 0., 0., 0., 0., 0., 0., 0., 0., 0., 0.,
          9.01537896e-006, 7.33249297e-004, 1.69710984e-004, 0., 0., 0.,
          0., 0., 0., 7.33332301e-004, 7.95864780e-003, 0., 0., 0., 0.,
          0., 0., 0., 0., 6.03996105e-002, 0., 0., 7.95864780e-003, 0.,
          0., 0., 0., 0., 3.47987786e-002, 0., 0., 0., 0.,
          1.69741306e-002, 0., 0., 0., 4.20829820e-005, 2.21499633e-002,
          2.18209479e-005, 0., 1.38102258e-002, 0., 0., 0., 0., 0., 0.,
          0., 1.33612150e-006, 0., 0., 0., 2.28084531e-002, 0., 0.,
          1.21043324e-002, 0., 3.29653773e-007, 0., 0., 1.38095245e-002,
          1.51415691e-007, 0., 0., 0., 0., 0., 1.46658509e-003, 0., 0.,
          0., 5.69548865e-004, 0., 2.31647164e-006, 0., 0., 0., 0., 0.,
          2.18050051e-002, 0., 0., 0., 0., 1.27530004e-008, 0.,
          1.51415691e-007, 0., 1.27530004e-008, 0., 0., 0., 0.,
          1.07548106e-002, 0., 0., 1.08981039e-004, 0., 0., 0., 0.,
          7.33034161e-004, 0., 0., 0., 0., 0., 0., 0., 0., 0., 0., 0.,
          3.85612686e-004, 4.26536985e-007, 0., 0., 0., 0., 0., 0., 0.,
          6.48008194e-003, 5.17857121e-003, 7.95939565e-003, 0., 0., 0.,
          0., 0., 0., 0., 0., 0., 0., 0., 4.23748558e-003, 0., 0., 0.,
          0., 0., 1.00071914e-003, 0., 0., 0., 0., 0., 0., 0., 0., 0.,
          1.46192515e-005, 0., 0., 0., 0., 0., 0., 1.93780706e-005, 0.,
          0., 0., 0., 6.48008194e-003, 0., 4.26536985e-007, 0., 0., 0.,
          0., 0., 0., 5.04816708e-004, 0., 0., 0., 0., 0., 0.,
          2.16830298e-002, 0., 0., 0., 0., 0., 0., 0., 0., 0., 0., 0.,
          0., 0., 0., 0., 0., 0., 0., 1.69710984e-004, 0., 0., 0., 0.,
          0., 0., 0., 7.47796832e-007, 1.51415691e-007, 0., 0., 0., 0.,
          0., 0., 0., 0., 0., 5.17857121e-003, 3.26384196e-007,
          7.81945512e-003, 4.57369015e-002, 0., 0., 0., 7.54304812e-004,
          0., 0., 0., 7.33034161e-004, 0., 4.14288715e-002, 0.,
          7.33034161e-004, 0., 0., 1.65835738e-001, 0., 0.,
          5.41716930e-004, 0., 0., 2.73794914e-003, 0., 7.95894582e-003,
          0., 0., 0., 0., 7.95864780e-003, 0., 0., 0., 0., 0., 0.,
          1.59172956e-002, 0., 0., 0., 0., 0., 3.78676802e-002, 0., 0.,
          1.29688450e-003, 0., 4.14214010e-004, 1.71540499e-001, 0., 0.,
          0., 0., 0., 0., 5.17857121e-003, 0., 0., 0., 0., 0., 0., 0.,
          0., 0., 0., 8.31749886e-002, 0., 2.99240637e-004, 0., 0.,
          6.48008194e-003, 5.17857121e-003, 0., 0., 0., 0.,
          2.70405678e-007, 1.32220584e-005, 0., 0., 1.32768002e-006, 0.,
          0., 0., 0., 7.00556338e-005, 0., 1.83241427e-005, 0., 0., 0.,
          0., 0., 0., 1.51201915e-002, 5.17857121e-003, 0., 0.,
          5.41580655e-003, 0., 0., 0., 0., 0., 0., 0., 0., 0., 0., 0.,
          0., 0., 0., 0., 0., 0., 0., 7.95864780e-003, 0., 0., 0., 0.,
          0., 0., 6.48008194e-003, 5.39520755e-004, 2.11223550e-002, 0.,
          0., 3.69645277e-004, 0. ]
      - [ 5.10724960e-003, 0., 0., 0., 0., 0., 0., 1.19297212e-007, 0.,
          7.25347141e-004, 0., 0., 8.93465802e-003, 0., 0., 0., 0., 0.,
          0., 1.17712822e-004, 0., 0., 0., 0., 0., 0., 0.,
          1.19297212e-007, 0., 0., 0., 0., 0., 0., 0., 0.,
          1.15181992e-005, 0., 0., 0., 0., 0., 0., 0., 0., 0., 0.,
          7.10302629e-006, 5.77711617e-004, 1.33711699e-004, 0., 0., 0.,
          0., 0., 0., 5.77777042e-004, 6.27045054e-003, 0., 0., 0., 0.,
          0., 0., 0., 0., 6.47592917e-002, 7.57575780e-003,
          7.57575780e-003, 6.27045054e-003, 0., 0., 0., 0., 0.,
          2.74172202e-002, 0., 0., 0., 0., 1.84240639e-002, 0., 0., 0.,
          6.09376281e-003, 7.35047599e-003, 1.71922620e-005, 0.,
          1.08807841e-002, 0., 0., 0., 0., 0., 0., 0., 1.05270180e-006,
          0., 0., 0., 1.79702975e-002, 0., 0., 1.45872524e-002, 0.,
          2.59727216e-007, 0., 0., 1.08802309e-002, 1.19297212e-007, 0.,
          0., 0., 0., 0., 1.15549122e-003, 0., 0., 0., 4.48735460e-004,
          0., 1.82509893e-006, 0., 0., 0., 0., 2.52525266e-002,
          1.71797015e-002, 0., 0., 0., 0., 1.01010203e-002, 0.,
          1.19297212e-007, 0., 5.05051529e-003, 0., 0., 0., 0.,
          1.85744986e-002, 0., 0., 8.58638523e-005, 0., 0., 0., 0.,
          5.77542116e-004, 0., 0., 0., 0., 0., 0., 0., 0., 0., 0., 0.,
          1.04048261e-002, 3.36059458e-007, 0., 0., 0., 0., 0., 0., 0.,
          5.10551920e-003, 4.08008648e-003, 6.27103914e-003, 0., 0., 0.,
          0., 0., 0., 7.57575780e-003, 0., 0., 0., 0., 3.33862519e-003,
          0., 1.01010110e-002, 0., 0., 0., 7.88445468e-004, 0., 0., 0.,
          0., 0., 0., 0., 0., 0., 1.15181992e-005, 0., 0., 0., 0., 0.,
          0., 1.52675711e-005, 0., 0., 0., 0., 5.10551920e-003, 0.,
          3.36059458e-007, 0., 0., 0., 0., 0., 0., 3.97734402e-004, 0.,
          0., 0., 0., 0., 0., 3.32452133e-002, 0., 0., 0., 0., 0., 0.,
          0., 0., 0., 0., 0., 0., 0., 0., 0., 0., 0., 0.,
          1.33711699e-004, 0., 0., 0., 0., 0., 0., 0., 5.89173339e-007,
          1.19297212e-007, 0., 0., 0., 0., 0., 0., 0., 0., 0.,
          4.08008648e-003, 2.57151214e-007, 6.16078312e-003,
          3.60351391e-002, 0., 0., 0., 5.94300800e-004, 0., 0., 0.,
          5.77542116e-004, 0., 4.27419394e-002, 0., 5.77542116e-004, 0.,
          0., 1.77123114e-001, 0., 0., 4.26807324e-004, 0., 0.,
          7.20767723e-003, 0., 6.27068477e-003, 0., 0., 0., 0.,
          6.27045054e-003, 0., 0., 0., 0., 0., 0., 2.43988959e-003, 0.,
          0., 0., 0., 0., 2.98351422e-002, 0., 0., 1.02178787e-003, 0.,
          3.26350448e-004, 1.40203640e-001, 0., 0., 0., 0., 0., 0.,
          4.08008648e-003, 0., 0., 0., 0., 0., 0., 0., 0., 0., 0.,
          7.05823228e-002, 0., 2.35765358e-004, 0., 0., 5.10551920e-003,
          4.08008648e-003, 0., 0., 0., 0., 2.13046889e-007,
          1.04173796e-005, 7.57575780e-003, 0., 1.04605101e-006, 0., 0.,
          0., 0., 5.51953490e-005, 0., 1.44372043e-005, 0., 0., 0., 0.,
          0., 0., 1.19128786e-002, 4.08008648e-003, 0., 0.,
          4.26699966e-003, 0., 0., 0., 0., 0., 0., 0., 0., 0., 0., 0.,
          0., 0., 0., 0., 0., 0., 0., 6.27045054e-003, 0.,
          1.01010110e-002, 0., 0., 0., 0., 5.10551920e-003,
          4.25076985e-004, 1.66418552e-002, 0., 0., 2.91235687e-004, 0. ]
      - [ 2.11881459e-004, 0., 0., 0., 4.15089708e-005, 0., 0.,
          3.66469612e-005, 0., 2.94881852e-006, 0., 2.10080862e-006,
          1.00787126e-007, 0., 0., 0., 1.16872926e-007, 0., 0.,
          8.11702557e-005, 0., 0., 0., 1.16872926e-007, 0., 0., 0.,
          7.31110394e-010, 0., 0., 0., 0., 0., 0., 0., 0.,
          2.76554306e-006, 0., 0., 0., 2.75611887e-006, 0., 0., 0., 0.,
          0., 8.30945675e-004, 4.38429503e-004, 2.42689587e-002,
          2.06481764e-005, 0., 0., 0., 0., 0., 0., 2.05637306e-007,
          2.32862671e-008, 0., 0., 0., 3.08219101e-002, 0., 0., 0., 0.,
          5.69858064e-004, 1.08930715e-006, 1.08930715e-006,
          2.32862671e-008, 0., 0., 0., 0., 0., 1.28599254e-006, 0., 0.,
          0., 0., 5.71479381e-004, 0., 0., 0., 1.34123420e-005,
          2.74202391e-003, 1.85858589e-005, 0., 1.31814758e-007, 0., 0.,
          0., 0., 0., 0., 0., 4.32547020e-009, 0., 0., 0.,
          7.09349057e-003, 0., 0., 1.61816317e-007, 0., 4.90374008e-009,
          0., 0., 1.26200575e-007, 8.71826069e-006, 0., 0., 0., 0., 0.,
          1.99973670e-007, 0., 0., 0., 9.08450488e-008, 0.,
          3.38218586e-009, 5.76889875e-007, 0., 0., 0., 7.59166374e-004,
          2.38134176e-004, 0., 3.08347475e-002, 0., 0., 2.80223212e-005,
          0., 7.90608556e-006, 0., 3.80180536e-005, 0., 0.,
          4.86000819e-004, 0., 2.62958892e-002, 0., 0., 3.13207948e-009,
          1.54057477e-006, 0., 0., 0., 1.45674990e-002, 0., 0., 0., 0.,
          0., 0., 0., 0., 0., 0., 3.51162248e-006, 3.68652004e-003,
          5.22315098e-008, 0., 0., 0., 0., 0., 0., 0., 7.28060529e-002,
          4.73252193e-008, 2.49839758e-008, 0., 0., 0., 0., 0., 0.,
          1.08930715e-006, 0., 0., 0., 0., 1.06386552e-002, 0.,
          2.12761074e-006, 0., 0., 0., 1.08147701e-002, 0.,
          2.26902703e-005, 0., 0., 0., 0., 0., 4.75696879e-006, 0.,
          1.08077769e-008, 0., 0., 0., 0., 0., 1.45865669e-002,
          2.43169852e-002, 0., 0., 0., 0., 5.75926400e-008,
          1.94983135e-004, 7.52905180e-005, 0., 0., 0., 0., 0., 0.,
          2.80251484e-002, 0., 0., 0., 0., 0., 9.97169758e-004,
          2.47759875e-002, 0., 0., 0., 2.44970604e-008, 0., 0., 0., 0.,
          0., 0., 0., 0., 0., 0., 0., 0., 0., 0., 4.45586430e-008, 0.,
          0., 4.57394868e-004, 0., 0., 0., 7.73455611e-008,
          8.30947363e-004, 7.31110394e-010, 0., 0., 0., 0.,
          8.30945675e-004, 0., 0., 0., 0., 4.73252193e-008,
          8.30960111e-004, 1.38343530e-005, 3.86373214e-002, 0., 0., 0.,
          4.71040886e-003, 0., 0., 0., 5.54073090e-008, 0.,
          1.63752848e-005, 0., 4.09589829e-009, 0., 0., 3.96636687e-002,
          0., 0., 2.75898083e-006, 1.81197029e-005, 4.21099969e-007,
          5.42815405e-006, 0., 2.37695676e-008, 6.64443223e-006, 0., 0.,
          0., 2.32862671e-008, 0., 0., 9.54622124e-007, 0.,
          1.45611987e-002, 0., 2.42975471e-008, 0., 0., 0.,
          5.00000007e-002, 1.53959138e-006, 4.15413640e-002, 0., 0.,
          3.82598870e-007, 4.25097880e-007, 2.59235877e-009,
          1.21728919e-001, 0., 0., 0., 1.38609983e-006, 8.30945675e-004,
          0., 4.73252193e-008, 0., 0., 0., 0., 0., 0., 0., 0., 0., 0.,
          3.44913751e-001, 0., 7.49233280e-008, 0., 0., 8.32621183e-004,
          4.73252193e-008, 9.97989673e-007, 0., 0., 0., 4.80427254e-009,
          1.44798635e-008, 9.98224015e-004, 0., 1.96750193e-007, 0., 0.,
          0., 0., 1.61865080e-006, 0., 1.37309399e-008, 0., 0., 0.,
          4.34655533e-007, 0., 0., 3.91887128e-003, 4.73252193e-008, 0.,
          1.13990100e-004, 2.18681316e-003, 0., 0., 0., 0., 0., 0., 0.,
          0., 0., 0., 0., 2.75611887e-006, 0., 0., 0., 1.43108181e-007,
          0., 0., 3.09385740e-007, 0., 2.12761074e-006, 0.,
          3.27684771e-004, 0., 0., 5.75926400e-008, 1.90330013e-007,
          1.11894178e-005, 0., 0., 8.78389912e-008, 0. ]
      - [ 1.74898640e-004, 0., 0., 0., 3.40783590e-005, 0., 0.,
          3.00872816e-005, 0., 6.59191073e-006, 0., 1.72473790e-006,
          1.72520197e-006, 0., 0., 0., 9.59512292e-008, 0., 0.,
          6.75646370e-005, 0., 0., 0., 9.59512292e-008, 0., 0., 0.,
          1.17900356e-009, 0., 0., 0., 0., 0., 0., 0., 0.,
          2.32363573e-006, 0., 0., 0., 2.26273960e-006, 0., 0., 0., 0.,
          0., 7.26013631e-003, 3.64856183e-004, 7.64665334e-003,
          1.71792035e-005, 0., 0., 0., 0., 0., 0., 2.36896511e-007,
          3.98597678e-007, 0., 0., 0., 2.63953786e-002, 0., 0., 0., 0.,
          2.50484142e-003, 1.86459765e-005, 1.86459765e-005,
          3.98597678e-007, 0., 0., 0., 0., 0., 2.17483121e-005, 0., 0.,
          0., 0., 3.53983976e-003, 0., 0., 0., 2.28669393e-004,
          6.03028852e-003, 1.53394230e-005, 0., 2.16752551e-006, 0., 0.,
          0., 0., 0., 0., 0., 8.63493899e-009, 0., 0., 0.,
          1.63466781e-002, 0., 0., 2.76985566e-006, 0., 5.32550537e-009,
          0., 0., 2.16021112e-006, 7.16713703e-006, 0., 0., 0., 0., 0.,
          1.20835068e-006, 0., 0., 0., 5.50164430e-007, 0.,
          1.15821699e-008, 4.73619423e-007, 0., 0., 0., 5.21601923e-003,
          2.14403364e-004, 0., 2.64059175e-002, 0., 0., 1.52049965e-004,
          0., 6.49137701e-006, 0., 6.09867158e-004, 0., 0.,
          2.50056945e-003, 0., 2.22147889e-002, 0., 0., 2.39337918e-008,
          1.27732903e-006, 0., 0., 0., 4.18152288e-003, 0., 0., 0., 0.,
          0., 0., 0., 0., 0., 0., 2.88299884e-006, 1.58791579e-002,
          4.44906298e-008, 0., 0., 0., 0., 0., 0., 0., 5.99770620e-002,
          8.10079257e-007, 4.02821684e-007, 0., 0., 0., 0., 0., 0.,
          1.86459765e-005, 0., 0., 0., 0., 9.49678570e-003, 0.,
          3.64189182e-005, 0., 0., 0., 1.10512376e-002, 0.,
          1.86284324e-005, 0., 0., 0., 0., 0., 3.90541254e-006, 0.,
          6.20322496e-008, 0., 0., 0., 0., 0., 4.19711228e-003,
          8.18733219e-003, 0., 0., 0., 0., 9.85829615e-007,
          1.57447055e-003, 1.28243736e-003, 0., 0., 0., 0., 0., 0.,
          4.49606730e-003, 0., 0., 0., 0., 0., 8.71219113e-003,
          1.26001760e-001, 0., 0., 0., 2.01227355e-008, 0., 0., 0.,
          1.85185187e-002, 0., 0., 0., 0., 0., 0., 0., 0., 0., 0.,
          2.63889859e-007, 0., 0., 3.75520816e-004, 0., 0., 0.,
          6.35034070e-008, 7.26014003e-003, 1.17900356e-009, 0., 0., 0.,
          0., 7.26013631e-003, 0., 0., 0., 0., 8.10079257e-007,
          7.26014934e-003, 3.12245174e-005, 3.80870663e-002, 0., 0., 0.,
          9.39446129e-003, 0., 0., 0., 1.12236698e-007, 0.,
          1.48658539e-004, 0., 7.01106586e-008, 0., 0., 3.35747898e-002,
          0., 0., 3.23041468e-006, 1.50773049e-005, 3.45717865e-007,
          3.15283578e-005, 0., 4.00120172e-007, 5.45499688e-006, 0., 0.,
          0., 3.98597678e-007, 0., 0., 7.83732958e-007, 0.,
          4.17628558e-003, 0., 4.15907977e-007, 0., 0., 0.,
          4.01234580e-003, 1.26398561e-006, 3.90948802e-002, 0., 0.,
          2.25118220e-006, 3.49000089e-007, 4.43741364e-008,
          7.63929039e-002, 0., 0., 0., 1.13797080e-006, 7.26013631e-003,
          0., 8.10079257e-007, 0., 0., 0., 0., 0., 0., 0., 0., 0., 0.,
          3.16941410e-001, 0., 9.94440157e-008, 0., 0., 7.26245018e-003,
          8.10079257e-007, 8.19337174e-007, 0., 0., 0., 5.01970776e-009,
          6.18608098e-008, 8.73080920e-003, 0., 1.66564362e-007, 0., 0.,
          0., 0., 1.33642288e-006, 0., 7.82638523e-008, 0., 0., 0.,
          3.56846812e-007, 0., 0., 5.27088623e-003, 8.10079257e-007, 0.,
          1.59984222e-003, 3.56860040e-003, 0., 0., 0., 0., 0., 0., 0.,
          0., 0., 0., 0., 2.26273960e-006, 0., 0., 0., 1.17490053e-007,
          0., 0., 6.33481704e-007, 0., 3.64189182e-005, 0.,
          1.94560946e-003, 0., 0., 9.85829615e-007, 1.11355132e-006,
          1.85325388e-002, 0., 0., 5.19341370e-007, 0. ]
      - [ 2.52948405e-004, 0., 0., 0., 4.95446475e-005, 0., 0.,
          4.37413692e-005, 0., 3.59692308e-006, 0., 2.50750350e-006,
          2.05579894e-007, 0., 0., 0., 1.39498326e-007, 0., 0.,
          8.63235837e-005, 0., 0., 0., 1.39498326e-007, 0., 0., 0.,
          8.03434930e-010, 0., 0., 0., 0., 0., 0., 0., 0.,
          3.30191210e-006, 0., 0., 0., 3.28967576e-006, 0., 0., 0., 0.,
          0., 1.66455167e-003, 4.66226455e-004, 1.02256993e-002,
          2.46500476e-005, 0., 0., 0., 0., 0., 0., 2.46593629e-007,
          4.74980162e-008, 0., 0., 0., 1.03794215e-002, 0., 0., 0., 0.,
          6.74136332e-004, 2.22190738e-006, 2.22190738e-006,
          4.74980162e-008, 0., 0., 0., 0., 0., 2.60725096e-006, 0., 0.,
          0., 0., 7.83589203e-004, 0., 0., 0., 4.54818569e-002,
          2.14955024e-003, 2.21851733e-005, 0., 2.63508184e-007, 0., 0.,
          0., 0., 0., 0., 0., 4.82803086e-009, 0., 0., 0.,
          8.85386672e-003, 0., 0., 3.30063813e-007, 0., 5.27263921e-009,
          0., 0., 2.57416843e-007, 1.03009579e-005, 0., 0., 0., 0., 0.,
          2.60923059e-007, 0., 0., 0., 1.18614999e-007, 0.,
          3.99251210e-009, 6.88569799e-007, 0., 0., 0., 2.49874163e-002,
          2.85215589e-004, 0., 1.03947446e-002, 0., 0., 4.17273441e-005,
          0., 9.43655323e-006, 0., 7.50953768e-005, 0., 0.,
          6.71484449e-004, 2.38636360e-002, 3.14128883e-002, 0., 0.,
          4.41904824e-009, 1.69212603e-006, 0., 0., 0., 5.54443989e-003,
          0., 0., 0., 0., 0., 0., 0., 0., 0., 0., 4.19143635e-006,
          5.17536188e-003, 2.59616002e-002, 0., 0., 0., 0., 0., 0., 0.,
          3.90677713e-002, 9.65313305e-008, 4.94305539e-008, 0., 0., 0.,
          0., 0., 0., 2.22190738e-006, 0., 0., 0., 0., 1.14043886e-002,
          0., 4.33977993e-006, 0., 0., 0., 1.17117940e-002, 0.,
          2.70828750e-005, 0., 0., 0., 0., 0., 5.67786901e-006, 0.,
          1.38879317e-008, 0., 0., 0., 0., 0., 5.56719769e-003,
          1.03106303e-002, 0., 0., 0., 0., 1.17474215e-007,
          3.29911156e-004, 2.61147842e-002, 0., 0., 0., 0., 0., 0.,
          3.24331522e-002, 0., 0., 0., 0., 0., 1.99750252e-003,
          8.35167840e-002, 0., 0., 0., 2.91113089e-008, 0., 0., 0.,
          9.61538521e-004, 0., 0., 0., 0., 0., 0., 0., 0., 0., 0.,
          5.77839714e-008, 0., 0., 5.45879884e-004, 0., 0., 0.,
          9.22761600e-008, 1.66455377e-003, 8.03434930e-010, 0., 0., 0.,
          0., 1.66455167e-003, 0., 0., 0., 0., 9.65313305e-008,
          1.66456716e-003, 1.68927745e-005, 3.24833207e-002, 0., 0., 0.,
          3.48496647e-003, 0., 0., 0., 6.95993592e-008, 0.,
          2.81488392e-005, 0., 8.35458280e-009, 0., 0., 2.56644301e-002,
          0., 0., 3.31197202e-006, 1.92725784e-005, 5.02620594e-007,
          6.99820202e-006, 0., 4.80625708e-008, 7.93072650e-006, 0., 0.,
          0., 4.74980162e-008, 0., 0., 1.13942724e-006, 0.,
          5.53691946e-003, 0., 4.95607608e-008, 0., 0., 0.,
          5.77564165e-002, 1.83764053e-006, 2.23626327e-002, 0., 0.,
          4.95182462e-007, 5.07392485e-007, 5.28774713e-009,
          1.04574628e-001, 0., 0., 0., 1.65443453e-006, 1.66455167e-003,
          0., 9.65313305e-008, 0., 0., 0., 0., 0., 0., 0., 0., 0., 0.,
          2.96705842e-001, 0., 9.10782774e-008, 0., 0., 1.66660023e-003,
          9.65313305e-008, 1.19119022e-006, 0., 0., 0., 5.15680565e-009,
          1.76467587e-008, 1.99968368e-003, 0., 2.34775641e-007, 0., 0.,
          0., 0., 1.93234291e-006, 0., 1.76192607e-008, 0., 0., 0.,
          5.18800391e-007, 0., 0., 4.27388772e-003, 9.65313305e-008, 0.,
          2.19015288e-004, 1.44834071e-003, 0., 0., 0., 0., 0., 0., 0.,
          0., 0., 0., 0., 3.28967576e-006, 0., 0., 0., 1.70812470e-007,
          0., 0., 3.88983381e-007, 0., 4.33977993e-006, 0.,
          4.67016915e-004, 0., 0., 1.17474215e-007, 2.45916084e-007,
          9.74983268e-004, 0., 0., 1.13852650e-007, 0. ]
      - [ 3.02311033e-003, 0., 0., 0., 4.50851070e-003, 0., 0.,
          3.74521642e-006, 0., 9.21942410e-006, 0., 2.14619064e-007,
          5.98352453e-005, 0., 0., 0., 1.19397656e-008, 0., 0.,
          1.35385098e-005, 0., 0., 0., 1.19397656e-008, 0., 0., 0.,
          1.42922518e-009, 0., 0., 0., 0., 0., 0., 0., 0.,
          4.10549035e-007, 2.25702906e-003, 0., 0., 2.81565747e-007, 0.,
          0., 0., 0., 0., 2.23819702e-003, 5.14243984e-005,
          1.23407494e-003, 3.23347035e-006, 0., 0., 0., 0., 0., 0.,
          5.25898622e-006, 1.91996987e-005, 0., 0., 0., 6.25735568e-003,
          0., 0., 0., 1.50315667e-004, 1.17466673e-002, 2.51693372e-003,
          2.51693372e-003, 1.91996987e-005, 0., 0., 0., 0., 0.,
          5.39369241e-004, 0., 0., 0., 0., 7.32930144e-003,
          6.75085525e-004, 0., 0., 4.60992232e-002, 6.51944429e-003,
          8.98761442e-004, 0., 1.34849560e-003, 0., 0., 0., 0., 0., 0.,
          0., 1.23629995e-008, 0., 0., 0., 1.57537591e-002, 0., 0.,
          2.08501995e-004, 0., 3.50179263e-009, 0., 0., 1.53066445e-004,
          9.04072806e-007, 0., 1.94648176e-003, 0., 0., 0.,
          8.56547649e-006, 0., 0., 0., 3.50563846e-006, 0.,
          5.51270146e-004, 5.89351963e-008, 0., 0., 0., 2.80405637e-002,
          1.38688320e-003, 0., 6.25866698e-003, 0., 0., 4.12136968e-003,
          0., 8.09042035e-007, 0., 7.24782469e-003, 0., 0.,
          1.87444105e-003, 2.28257366e-002, 2.64069736e-002, 0., 0.,
          9.15940802e-007, 1.74231985e-007, 0., 0., 0., 6.83849212e-004,
          0., 0., 0., 0., 0., 0., 0., 0., 0., 0., 3.58748139e-007,
          6.52054325e-002, 2.69153509e-002, 0., 0., 0., 0., 0., 0., 0.,
          8.25170334e-003, 5.89236806e-005, 7.94899242e-005, 0., 0., 0.,
          0., 8.73230747e-004, 0., 2.51693372e-003, 0., 0., 0., 0.,
          1.53033563e-003, 0., 3.52010597e-003, 0., 0., 0.,
          1.36725241e-002, 0., 2.31804347e-006, 0., 0., 0., 0., 0.,
          4.85972976e-007, 0., 1.29124672e-007, 0., 0., 0., 0., 0.,
          6.80562225e-004, 3.67977261e-003, 0., 0., 0., 0.,
          6.93363982e-005, 3.09148896e-003, 3.93621884e-002, 0., 0., 0.,
          0., 0., 0., 2.62307958e-003, 0., 0., 0., 0., 0.,
          3.74221290e-003, 1.51346028e-001, 0., 0., 0., 1.57247169e-003,
          0., 0., 0., 8.29548948e-003, 0., 0., 0., 0., 0., 0., 0., 0.,
          0., 0., 1.12860050e-006, 0., 0., 4.67346727e-005, 0., 0., 0.,
          7.90654475e-009, 2.17792043e-003, 1.42922518e-009, 0., 0., 0.,
          0., 2.17791367e-003, 0., 0., 0., 0., 5.89236806e-005,
          2.17791833e-003, 6.54713440e-005, 2.83435863e-002, 0., 0., 0.,
          4.81027178e-003, 0., 0., 0., 5.24072311e-006, 0.,
          4.84884065e-003, 0., 5.23548169e-006, 0., 0., 2.11620089e-002,
          0., 0., 4.14660826e-006, 2.12156397e-006, 4.30196714e-008,
          2.65394314e-003, 0., 1.92023999e-005, 6.78796766e-007, 0., 0.,
          0., 1.91996987e-005, 0., 0., 9.75244134e-008, 0.,
          6.77970704e-004, 0., 9.21372382e-004, 0., 0., 0.,
          4.81904894e-002, 1.57285029e-007, 9.91831999e-003, 0., 0.,
          8.72933288e-006, 7.59559189e-005, 4.78445327e-006,
          5.37368394e-002, 0., 3.56037344e-005, 0., 1.41604289e-007,
          2.17791367e-003, 0., 5.89236806e-005, 0., 0., 0., 0., 0., 0.,
          0., 0., 0., 0., 2.13671505e-001, 0., 4.13880298e-006, 0., 0.,
          2.24741525e-003, 5.89236806e-005, 1.01954861e-007, 0., 0., 0.,
          2.96462610e-009, 1.18992652e-007, 5.38591156e-003, 0.,
          4.50430205e-003, 0., 0., 0., 2.14096205e-003, 9.36002550e-007,
          0., 1.62276734e-007, 0., 0., 0., 4.92250174e-003, 0., 0.,
          5.87850064e-003, 5.89236806e-005, 0., 5.92232356e-003,
          1.62978051e-003, 0., 0., 0., 0., 0., 0., 0., 0., 0., 0., 0.,
          2.81565747e-007, 0., 0., 0., 1.46199666e-008, 0., 0.,
          7.78036992e-005, 0., 3.52010597e-003, 0., 1.56845211e-003, 0.,
          0., 6.93363982e-005, 3.86490956e-006, 8.48378893e-003,
          8.50809854e-004, 0., 2.50518383e-006, 0. ]
      - [ 1.76522671e-003, 0., 0., 0., 2.84868968e-003, 0., 0.,
          6.72689612e-006, 0., 5.31592241e-006, 0., 3.85581245e-007,
          3.28980350e-005, 0., 0., 0., 2.14507949e-008, 0., 0.,
          1.84757027e-005, 0., 0., 0., 2.14507949e-008, 0., 0., 0.,
          8.67315053e-010, 0., 0., 0., 0., 0., 0., 0., 0.,
          5.76590253e-007, 1.40529044e-003, 0., 0., 5.05856519e-007, 0.,
          0., 0., 0., 0., 1.87968556e-003, 8.67714552e-005,
          2.19388190e-003, 4.40900067e-006, 0., 0., 0., 0., 0., 0.,
          3.03385741e-006, 1.03426710e-005, 0., 0., 0., 6.12960709e-003,
          0., 0., 0., 1.19996395e-004, 8.17913469e-003, 1.63846684e-003,
          1.63846684e-003, 1.03426710e-005, 0., 0., 0., 0., 0.,
          2.56180268e-004, 0., 0., 0., 0., 3.60015593e-003,
          2.86907394e-004, 0., 0., 5.28209582e-002, 4.27374057e-003,
          3.59322468e-004, 0., 5.57286898e-004, 0., 0., 0., 0., 0., 0.,
          0., 7.23294846e-009, 0., 0., 0., 1.14250537e-002, 0., 0.,
          1.14667593e-004, 0., 2.54449284e-009, 0., 0., 7.98861438e-005,
          1.85201298e-002, 0., 7.40188989e-004, 0., 0., 0.,
          4.78786797e-006, 0., 0., 0., 1.96155361e-006, 0.,
          2.41660469e-004, 1.05882052e-007, 0., 0., 0., 2.98779905e-002,
          6.15834317e-004, 0., 6.13196287e-003, 0., 0., 2.34495359e-003,
          0., 1.45181195e-006, 0., 5.04013104e-003, 0., 0.,
          1.13683904e-003, 2.70806905e-002, 1.05332453e-002, 0., 0.,
          4.46352497e-004, 2.98843219e-007, 0., 0., 0., 1.19010813e-003,
          0., 0., 0., 0., 0., 0., 0., 0., 0., 0., 6.44521265e-007,
          5.50734550e-002, 2.97139976e-002, 0., 0., 0., 0., 0., 0., 0.,
          1.17362747e-002, 3.11281510e-005, 5.26380863e-005, 0., 0., 0.,
          0., 3.66955966e-004, 0., 1.63870899e-003, 2.42120734e-007, 0.,
          0., 0., 2.33568740e-003, 0., 2.30625528e-003, 0., 0., 0.,
          9.59297270e-003, 0., 4.16456032e-006, 0., 0., 0., 0., 0.,
          8.73091381e-007, 0., 7.09876460e-008, 0., 0., 0., 0., 0.,
          1.19061372e-003, 3.56912334e-003, 0., 0., 0., 0.,
          3.41405357e-005, 1.69707113e-003, 3.73350605e-002, 0., 0., 0.,
          0., 0., 0., 4.55483086e-002, 0., 0., 0., 0., 0.,
          2.85007898e-003, 1.06817402e-001, 0., 0., 0., 8.19398381e-004,
          0., 0., 0., 6.64566923e-003, 0., 0., 0., 0., 0., 0., 0., 0.,
          0., 0., 6.27423901e-007, 0., 0., 8.39567874e-005, 0., 0., 0.,
          1.42006469e-008, 1.83715590e-003, 8.67315053e-010, 0., 0., 0.,
          0., 1.83715194e-003, 0., 0., 0., 4.45816229e-004,
          3.11281510e-005, 1.83715660e-003, 3.73249241e-005,
          6.17879331e-002, 0., 0., 0., 3.39783286e-003, 0., 0., 0.,
          3.00460260e-006, 0., 2.69534159e-003, 0., 2.99518479e-006, 0.,
          0., 3.80679257e-002, 0., 0., 2.62364233e-006, 3.58393777e-006,
          7.72884619e-008, 2.45710160e-003, 0., 1.03441880e-005,
          1.21951541e-006, 0., 0., 0., 1.03426710e-005, 0., 0.,
          1.75210801e-007, 0., 1.18595792e-003, 0., 3.69120564e-004, 0.,
          0., 0., 5.68697900e-002, 2.82575797e-007, 9.66514554e-003,
          2.34315098e-006, 4.01381552e-002, 4.85147757e-006,
          5.80548040e-005, 2.84508315e-006, 3.83703485e-002, 0.,
          5.01194918e-005, 0., 2.54403972e-007, 1.83715194e-003, 0.,
          3.11281510e-005, 0., 4.45816229e-004, 0., 0., 0., 0., 0., 0.,
          0., 0., 1.78749144e-001, 0., 2.49303503e-006, 0., 0.,
          1.87158945e-003, 3.11281510e-005, 1.83170499e-007, 0., 0., 0.,
          2.24213936e-009, 6.59551063e-008, 4.12158249e-003, 0.,
          3.50983813e-003, 0., 0., 0., 1.65989343e-003, 9.98645305e-007,
          0., 8.92287844e-008, 0., 0., 0., 3.52934538e-003, 0., 0.,
          3.62918992e-003, 3.11281510e-005, 0., 2.59586168e-003,
          1.12169678e-003, 0., 0., 0., 0., 0., 0., 0., 0., 0., 0., 0.,
          5.05856519e-007, 0., 0., 0., 2.62660009e-008, 0., 0.,
          5.75931044e-005, 0., 2.30625528e-003, 0., 9.58070101e-004, 0.,
          0., 3.41405357e-005, 2.14179954e-006, 6.75291894e-003,
          4.28501196e-004, 0., 1.40258123e-006, 0. ]
      - [ 1.50593393e-003, 0., 0., 0., 1.08314038e-003, 0., 0.,
          1.69883965e-008, 0., 2.94841622e-004, 0., 5.78871113e-004,
          5.01232455e-004, 0., 0., 0., 4.98802423e-011, 1.91800005e-004,
          0., 5.50391036e-004, 1.62597075e-006, 4.33810195e-003, 0.,
          4.98802423e-011, 0., 0., 2.59983423e-003, 4.17984230e-003,
          8.40264256e-004, 0., 0., 4.45129030e-004, 8.20101122e-004, 0.,
          2.39118631e-003, 0., 1.62824314e-008, 5.40659603e-005, 0.,
          1.68244458e-008, 1.16933396e-009, 8.67356360e-003, 0.,
          4.58067632e-004, 0., 0., 4.34273767e-004, 1.88098966e-007,
          2.47756438e-003, 2.23666220e-007, 0., 0., 0., 0., 0., 0.,
          1.73022784e-006, 7.48130959e-004, 0., 2.50960886e-003,
          1.32596810e-007, 7.12360779e-004, 0., 0., 0., 6.98221207e-004,
          2.76811402e-002, 4.12604495e-005, 4.12604495e-005,
          2.76550736e-006, 0., 0., 1.67935024e-004, 0., 8.51974590e-004,
          5.16914042e-005, 1.77205715e-004, 0., 0., 0., 2.18246132e-002,
          6.10001625e-005, 4.45129030e-004, 0., 2.16691941e-003,
          6.75924122e-002, 8.48774984e-003, 0., 1.53748672e-002, 0., 0.,
          0., 0., 0., 0., 2.71805678e-003, 1.14080254e-002, 0., 0.,
          4.58067632e-004, 3.88722215e-003, 0., 0., 1.19855627e-004,
          1.91800005e-004, 3.34973604e-010, 0., 0., 7.79934519e-004,
          1.66472571e-003, 0., 4.27117542e-004, 9.18305758e-003, 0., 0.,
          2.22676886e-006, 0., 2.08112807e-003, 0., 8.60054342e-007, 0.,
          7.25877378e-003, 2.06201673e-002, 2.08647412e-004, 0., 0.,
          7.41573982e-004, 5.79584157e-003, 0., 2.48092147e-005, 0., 0.,
          1.27524103e-003, 0., 5.08275333e-009, 0., 4.63316962e-003, 0.,
          0., 2.27610115e-004, 2.30869715e-004, 4.94216681e-002, 0., 0.,
          6.97169598e-005, 6.35086761e-010, 0., 0., 0., 2.33347900e-002,
          4.58067632e-004, 0., 2.08112807e-003, 0., 0., 0., 0.,
          2.67565460e-003, 9.10838507e-003, 0., 1.52181756e-009,
          6.24354742e-003, 1.22611579e-002, 0., 0., 0., 0., 0.,
          7.10849825e-004, 0., 1.75939519e-002, 3.04484944e-004,
          5.27454214e-003, 0., 2.96505255e-004, 0., 1.57314483e-002,
          7.87256504e-005, 5.04759327e-003, 3.03007453e-003,
          3.62630031e-004, 0., 0., 0., 1.97196472e-003, 0.,
          5.85306370e-005, 0., 0., 0., 4.36902425e-004, 1.67976250e-004,
          6.19026890e-004, 0., 8.67356360e-003, 0., 0., 0.,
          5.20161348e-006, 1.91800005e-004, 5.32818493e-004, 0., 0., 0.,
          0., 4.55416087e-003, 2.63785910e-006, 8.39065947e-003, 0., 0.,
          0., 8.40264256e-004, 3.01492808e-004, 2.92581772e-005,
          2.49488577e-002, 0., 4.58067632e-004, 0., 0., 0., 0.,
          5.77260600e-003, 0., 0., 0., 0., 0., 4.20267601e-003,
          4.13060710e-002, 9.89746884e-004, 0., 4.17011417e-003,
          3.00752954e-003, 0., 0., 2.44381517e-004, 4.94590669e-004, 0.,
          8.90258059e-004, 0., 0., 0., 0., 0., 0., 0., 0.,
          2.96720624e-004, 0., 0., 2.08814396e-004, 6.87566469e-004, 0.,
          0., 3.30109690e-011, 2.02185256e-004, 1.53539750e-010, 0., 0.,
          2.25283625e-003, 0., 1.03844777e-005, 0., 0., 4.93432221e-004,
          3.37095233e-004, 1.03871789e-005, 1.03848133e-005,
          4.52191394e-004, 6.69859350e-002, 0., 0., 0., 7.06075691e-003,
          0., 0., 0., 7.28767272e-003, 1.91800005e-004, 2.13423762e-002,
          0., 1.89436891e-003, 1.14080245e-002, 1.68782921e-004,
          3.11574265e-002, 0., 6.16124598e-004, 6.40906251e-007,
          1.45823683e-003, 1.80348514e-010, 8.73203462e-005, 0.,
          1.13900879e-003, 2.96508224e-004, 0., 0., 0., 2.76550736e-006,
          9.33260599e-005, 0., 4.04757478e-010, 0., 2.99132749e-004, 0.,
          7.45793979e-004, 3.56111968e-006, 0., 0., 3.79136298e-004,
          6.57245591e-010, 3.16470824e-002, 3.80135752e-004,
          4.18395241e-004, 1.68733868e-006, 2.25584600e-002,
          3.11461145e-006, 2.77804993e-002, 0., 2.13851541e-004,
          8.86800326e-003, 5.91234839e-010, 1.35263707e-003, 0.,
          1.87592916e-004, 0., 6.92091999e-005, 0., 0., 0., 0., 0., 0.,
          0., 3.53484560e-004, 1.35705099e-001, 0., 6.25036948e-004, 0.,
          0., 6.36984780e-003, 2.11845292e-003, 8.40289402e-004, 0.,
          1.34225283e-003, 0., 2.74920198e-010, 1.33563125e-008,
          5.29211793e-005, 0., 4.49205923e-004, 0., 0., 1.68244458e-008,
          6.61646118e-005, 5.85445249e-003, 0., 2.29259417e-003, 0., 0.,
          0., 7.42662014e-005, 5.78870298e-004, 0., 2.01567099e-003,
          7.55752670e-004, 0., 8.22160291e-005, 4.75110108e-004, 0.,
          6.05428241e-009, 0., 0., 0., 0., 4.45129030e-004,
          2.04988895e-003, 0., 0., 0., 1.16933396e-009, 0., 0., 0.,
          6.10961906e-011, 6.87566469e-004, 0., 6.45058742e-003, 0.,
          5.84894551e-005, 0., 1.90261853e-005, 0., 7.45365396e-004,
          7.37828850e-006, 2.68523552e-004, 3.86256315e-002,
          4.54019813e-004, 0., 6.35440301e-007, 1.57314483e-002 ]
      - [ 2.11995887e-003, 0., 0., 0., 3.25154909e-003, 0., 0.,
          2.42010742e-007, 0., 3.47978086e-004, 0., 1.07861450e-003,
          7.15221977e-004, 0., 0., 0., 5.82345561e-010, 3.03753099e-004,
          0., 1.06616957e-004, 2.24757041e-005, 2.09869584e-003, 0.,
          5.82345561e-010, 0., 0., 3.51072173e-003, 1.01827057e-002,
          1.47236118e-004, 0., 0., 9.17316065e-004, 1.19228230e-003, 0.,
          3.06172995e-003, 0., 2.75649745e-006, 3.69886293e-005, 0.,
          2.09996392e-006, 1.33920226e-008, 4.87971073e-003, 0.,
          6.82352635e-004, 0., 0., 5.34901861e-004, 7.01016063e-007,
          1.02952477e-002, 1.88989404e-007, 0., 0., 0., 0., 0., 0.,
          8.19814829e-007, 9.39371646e-004, 0., 3.98659962e-004,
          5.78294839e-006, 9.38490673e-004, 0., 0., 0., 1.35663804e-003,
          2.09774133e-002, 3.19202700e-005, 3.19202700e-005,
          1.51818551e-006, 0., 0., 5.17774024e-004, 0., 1.53896527e-003,
          2.95020982e-005, 5.97010949e-004, 0., 0., 0., 9.28808749e-002,
          3.56306773e-005, 9.17316065e-004, 0., 2.49699354e-002,
          2.51070093e-002, 4.33801813e-003, 0., 2.21447228e-003, 0., 0.,
          0., 0., 0., 0., 3.56383948e-003, 1.75334257e-003, 0., 0.,
          6.82352635e-004, 2.91082519e-003, 0., 0., 4.32464032e-004,
          3.03753099e-004, 1.83981427e-010, 0., 0., 6.21795421e-004,
          5.66821219e-003, 0., 3.00310174e-004, 1.61197735e-003, 0., 0.,
          1.06901689e-006, 0., 2.34277011e-003, 0., 1.93863652e-005, 0.,
          1.68591191e-003, 7.52367824e-003, 4.48991748e-004, 0., 0.,
          1.40037457e-003, 1.09732349e-003, 0., 4.98051231e-005, 0., 0.,
          1.66836905e-003, 0., 1.15976256e-007, 0., 7.51379237e-004, 0.,
          0., 4.66452562e-004, 1.98545487e-004, 6.47546956e-003, 0., 0.,
          3.08381510e-004, 3.80718967e-009, 0., 0., 0., 3.25139388e-002,
          6.82352635e-004, 0., 2.34277011e-003, 0., 0., 0., 0.,
          4.05237661e-004, 7.82647403e-004, 0., 1.86280804e-008,
          6.97463565e-003, 6.84885262e-003, 0., 0., 0., 0., 0.,
          7.81846102e-005, 0., 3.12571414e-002, 3.53016687e-004,
          8.20791873e-004, 0., 7.57192727e-004, 0., 3.07397582e-002,
          4.63230244e-005, 1.38828566e-003, 3.90980346e-003,
          5.80560358e-004, 0., 0., 0., 2.48182993e-002, 0.,
          5.10456484e-005, 0., 0., 0., 7.54702371e-004, 5.23363473e-004,
          3.51529634e-005, 0., 4.87971073e-003, 0., 0., 0.,
          5.33866512e-007, 3.03753099e-004, 9.36789380e-004, 0., 0., 0.,
          0., 6.78774377e-004, 1.02796948e-005, 1.56769846e-002, 0., 0.,
          0., 1.47236118e-004, 3.56504024e-004, 2.69994816e-005,
          1.59763433e-002, 0., 6.82352635e-004, 0., 2.75526720e-004, 0.,
          0., 3.39282560e-003, 0., 0., 0., 0., 0., 3.21941404e-003,
          7.29778083e-003, 1.17578125e-003, 0., 4.77806956e-004,
          5.13426960e-003, 0., 0., 2.37927641e-004, 1.15183248e-004, 0.,
          1.83463213e-003, 0., 0., 0., 0., 0., 0., 0., 0.,
          7.57299946e-004, 0., 0., 4.49890533e-004, 8.89209507e-004, 0.,
          0., 3.84615645e-010, 3.18283419e-004, 8.21971796e-011, 0.,
          1.89716684e-005, 4.85329423e-003, 0., 1.45298918e-005, 0., 0.,
          7.09511340e-004, 8.40436202e-004, 5.47002264e-006,
          1.45300892e-005, 9.66235180e-004, 3.90487388e-002, 0., 0., 0.,
          7.76473992e-003, 0., 0., 0., 6.75610229e-002, 3.03753099e-004,
          6.47175079e-003, 0., 2.97402684e-003, 1.75334187e-003,
          6.88878121e-004, 1.13410607e-001, 0., 1.76666328e-003,
          3.37518230e-007, 2.00240305e-004, 2.12891194e-009,
          6.78454962e-005, 0., 2.76686880e-003, 7.57230562e-004, 0., 0.,
          0., 1.51818551e-006, 4.17703151e-004, 0., 4.62611860e-009, 0.,
          7.67366437e-004, 0., 9.24757798e-004, 3.66241494e-007, 0., 0.,
          3.83873441e-004, 7.67885666e-009, 2.89048757e-002,
          1.23815771e-004, 9.18848207e-004, 8.35432218e-007,
          3.23466631e-003, 1.35997072e-006, 2.70864367e-002, 0.,
          1.79307099e-004, 4.50114440e-003, 6.89002011e-009,
          3.64002585e-003, 0., 6.02480955e-004, 0., 3.08156305e-004, 0.,
          0., 0., 0., 0., 0., 0., 1.59626594e-004, 1.24526680e-001, 0.,
          1.77658862e-004, 0., 0., 1.23908743e-003, 5.31866855e-004,
          1.48380437e-004, 0., 3.62549629e-003, 0., 1.52096655e-010,
          7.08566494e-009, 4.98751797e-005, 0., 9.06384608e-004, 0., 0.,
          2.09996392e-006, 4.86925928e-005, 1.25600165e-003, 0.,
          7.18930736e-004, 0., 0., 0., 6.22529114e-005, 1.07860472e-003,
          0., 2.18878919e-003, 9.43323539e-004, 0., 6.47391207e-005,
          6.98810152e-004, 0., 2.98290331e-007, 0., 0., 0., 0.,
          9.17316065e-004, 2.39512141e-004, 0., 0., 0., 1.33920226e-008,
          0., 0., 0., 7.13997916e-010, 8.89209507e-004, 0.,
          3.58326361e-003, 0., 4.54562105e-005, 0., 1.65280271e-005, 0.,
          9.42880230e-004, 4.12197551e-006, 5.32604114e-004,
          2.09267773e-002, 2.53923994e-004, 0., 3.03415675e-007,
          3.07397582e-002 ]
      - [ 5.82788081e-004, 6.03155167e-005, 0., 0., 1.16562529e-003, 0.,
          8.32443620e-005, 0., 7.33928708e-003, 8.46983457e-005, 0., 0.,
          1.84811593e-004, 9.24057967e-004, 0., 6.23492000e-004, 0., 0.,
          1.84811593e-004, 1.31900422e-004, 0., 0., 0., 0., 0., 0.,
          3.79997492e-003, 8.13526218e-004, 1.04933373e-004, 0.,
          4.19387827e-003, 3.76062322e-004, 2.35038970e-004, 0., 0., 0.,
          5.86155802e-004, 0., 0., 0., 5.00670176e-005, 0., 0., 0., 0.,
          0., 1.12212962e-003, 0., 3.85714302e-005, 0., 1.50904352e-005,
          0., 0., 8.46983457e-005, 0., 0., 0., 1.04079447e-006, 0., 0.,
          1.09938148e-003, 7.53974775e-003, 0., 0., 0., 0.,
          4.93005998e-002, 3.76062322e-004, 0., 5.26041025e-004, 0., 0.,
          4.24943224e-004, 0., 2.89231044e-004, 8.15866049e-003, 0., 0.,
          0., 0., 8.35634395e-003, 0., 0., 0., 1.13044297e-002,
          1.74546745e-002, 1.61198957e-004, 0., 0., 0., 0., 0.,
          2.35038970e-004, 0., 0., 1.03399871e-004, 0., 0., 0., 0.,
          7.50927720e-004, 0., 2.44945870e-004, 2.57142856e-005, 0., 0.,
          0., 0., 7.45057175e-003, 1.99386943e-003, 0., 3.29272792e-004,
          0., 0., 0., 6.60992693e-004, 0., 0., 0., 0., 0.,
          4.29623760e-003, 6.77618838e-004, 6.35790115e-004,
          3.00996500e-004, 0., 1.10636679e-002, 4.46393678e-005, 0.,
          3.89400193e-005, 0., 0., 1.59010652e-003, 0., 0., 0.,
          7.31163716e-004, 8.94508907e-004, 0., 0., 0., 2.27117091e-002,
          8.68528266e-004, 0., 8.43283720e-004, 0., 0., 0.,
          6.61900965e-004, 0., 1.10849796e-004, 0., 1.04079447e-006,
          6.61900965e-004, 0., 1.04933373e-004, 0., 0., 3.30864947e-004,
          0., 1.82466116e-002, 1.09824352e-002, 4.63105552e-003, 0.,
          2.19717695e-004, 0., 0., 0., 1.04933373e-004, 0.,
          8.71429627e-004, 0., 2.19717695e-004, 0., 1.04079447e-006, 0.,
          6.97994838e-004, 9.60922800e-004, 1.41805848e-002,
          7.68301717e-004, 0., 0., 0., 0., 3.23895109e-003, 0., 0.,
          8.46983457e-005, 0., 0., 1.20816557e-002, 0., 4.79276147e-004,
          0., 5.08828496e-004, 0., 0., 5.91552816e-005, 1.77372212e-003,
          0., 1.02762773e-003, 0., 0., 0., 0., 0., 2.48211581e-004,
          5.99826046e-004, 1.04079447e-006, 0., 0., 5.00670176e-005, 0.,
          4.37137950e-003, 4.06737113e-003, 0., 5.56141185e-003, 0., 0.,
          0., 1.60493088e-004, 1.63760856e-002, 0., 0., 0., 0., 0.,
          7.38162416e-005, 1.44258663e-002, 0., 0., 1.60158190e-004,
          2.92772544e-003, 0., 3.09566880e-004, 3.92239395e-004,
          2.92439683e-004, 0., 7.65242148e-004, 0., 0., 0., 0., 0.,
          1.36371891e-004, 0., 0., 3.92239395e-004, 4.19387827e-003,
          1.56034983e-003, 0., 0., 0., 0., 1.04079447e-006,
          6.51925011e-003, 1.43712721e-004, 0., 0., 0., 0., 0., 0., 0.,
          1.36371891e-004, 1.04079447e-006, 1.50609005e-003,
          1.31866976e-003, 2.19717695e-004, 5.30046318e-003, 0., 0., 0.,
          8.76875874e-003, 0., 9.47661139e-003, 0., 1.08778979e-004, 0.,
          8.94127134e-003, 0., 1.54732158e-002, 1.10849796e-004, 0.,
          3.86979394e-002, 0., 1.98808106e-004, 1.15577620e-003, 0., 0.,
          7.23959936e-004, 0., 1.54483144e-003, 8.32443620e-005, 0., 0.,
          0., 1.04079447e-006, 4.18525713e-004, 0., 1.56424404e-003, 0.,
          3.47811525e-004, 0., 5.22260438e-004, 0., 0., 0.,
          2.05555029e-004, 0., 7.06363562e-003, 0., 0., 0.,
          1.32815272e-004, 0., 4.90561165e-002, 0., 1.84811593e-004,
          6.28246489e-005, 0., 3.25770192e-002, 0., 4.43569064e-004, 0.,
          0., 0., 3.00351391e-003, 0., 0., 4.75480594e-003, 0., 0.,
          2.19717695e-004, 3.85361761e-001, 5.30203106e-004,
          1.96676864e-003, 2.44945870e-004, 0., 6.13280851e-003, 0.,
          7.71428604e-005, 0., 0., 3.76062322e-004, 1.88806548e-003, 0.,
          0., 3.31689189e-005, 8.59284846e-005, 1.98808106e-004,
          1.02359081e-004, 1.04933373e-004, 3.57142853e-005,
          2.33194530e-002, 0., 8.07418767e-003, 0., 0., 4.25100414e-004,
          4.08233347e-004, 6.51925011e-003, 0., 2.47846898e-002, 0., 0.,
          0., 8.30854478e-005, 4.25984006e-004, 0., 0., 0., 0., 0., 0.,
          0., 0., 4.87768004e-004, 0., 1.65446356e-004, 0., 0., 0., 0.,
          3.79997492e-003, 6.43372245e-004, 6.82161609e-003, 0.,
          3.72528587e-003, 0., 5.91552816e-005, 0., 0., 1.98808106e-004,
          0., 7.25677609e-003, 3.49595830e-005, 5.91552816e-005, 0.,
          2.35038970e-004 ]
      - [ 5.77934610e-004, 8.77445132e-007, 1.72664477e-006,
          9.10941617e-006, 1.54566830e-002, 0., 1.85975466e-006,
          8.08479239e-009, 0., 3.69270742e-006, 1.24593513e-004,
          3.27614869e-009, 3.04199318e-007, 1.28347485e-004, 0.,
          1.17207877e-004, 5.99341774e-007, 0., 0., 2.45636284e-006, 0.,
          5.03436546e-004, 0., 5.23478911e-006, 0., 0., 5.29401586e-004,
          7.71586292e-006, 2.61252935e-005, 0., 0., 4.70687723e-004,
          1.43340637e-008, 0., 2.86161131e-003, 1.54284062e-005,
          1.71044832e-007, 1.55099515e-005, 0., 2.68774407e-008,
          2.07096164e-004, 4.54117917e-002, 0., 5.51409321e-005,
          1.54279332e-005, 1.19736954e-009, 1.72692146e-002,
          8.33102595e-003, 6.92277581e-006, 1.58853270e-002, 0., 0.,
          5.71749467e-007, 1.26053692e-006, 0., 0., 0., 0., 0.,
          2.11787111e-007, 5.59260343e-006, 2.41491172e-004, 0., 0., 0.,
          7.46227161e-005, 2.30555180e-002, 1.65196240e-003, 0.,
          4.41633072e-003, 0., 0., 1.30739920e-006, 0., 5.23478911e-006,
          3.19806131e-005, 5.02915762e-004, 0., 0., 0., 3.66664417e-002,
          6.31729478e-008, 3.26554946e-005, 0., 3.97386611e-004,
          3.39752808e-002, 3.51617187e-002, 5.90810077e-006,
          1.07963688e-005, 0., 0., 1.65247748e-005, 2.26774009e-005, 0.,
          0., 5.74837998e-007, 0., 0., 8.09957601e-006, 0.,
          1.11200679e-002, 0., 0., 1.16037029e-006, 0., 1.42008400e-006,
          0., 1.37814780e-007, 1.69229708e-004, 1.24593513e-004, 0.,
          8.47171992e-004, 4.32893547e-004, 0., 0., 0., 7.60707508e-007,
          1.60447817e-004, 0., 2.48922767e-008, 0., 3.75854725e-005,
          9.74683098e-006, 9.38653739e-006, 0., 5.09970778e-005,
          1.13713916e-003, 4.94064472e-004, 0., 5.87318638e-010,
          6.76745458e-007, 0., 2.40534769e-006, 2.30602454e-005, 0.,
          3.27614869e-009, 1.14566035e-006, 1.01538296e-006, 0.,
          1.52652356e-005, 0., 2.29105745e-002, 0., 1.89874277e-006,
          1.65560457e-004, 6.81118237e-008, 0., 0., 1.72820641e-004,
          5.30958205e-005, 0., 0., 4.15629913e-008, 0., 5.02366747e-004,
          0., 1.84305657e-006, 5.90491936e-006, 2.35070256e-004, 0.,
          3.49225957e-005, 1.71526317e-002, 9.70556680e-003, 0.,
          1.12892349e-005, 0., 0., 0., 7.77678963e-007, 2.30482619e-005,
          7.90026024e-005, 0., 1.80386436e-007, 0., 0., 5.29829158e-008,
          0., 1.88369688e-006, 4.38741790e-006, 1.84062446e-006,
          2.86168256e-003, 0., 2.33095875e-006, 0., 1.37209361e-002,
          4.21618097e-007, 0., 0., 0., 0., 9.04776808e-003, 0., 0., 0.,
          6.38561440e-004, 0., 0., 3.38570611e-003, 8.52616155e-004,
          3.25709743e-006, 1.58439856e-004, 1.65992504e-004, 0., 0., 0.,
          0., 0., 7.97466934e-003, 0., 0., 0., 0., 6.83922190e-005,
          8.73448269e-004, 1.11730341e-002, 0., 6.09617622e-004, 0.,
          1.71927823e-008, 0., 3.86046644e-008, 9.04138666e-003, 0.,
          7.10340302e-008, 0., 0., 0., 3.49369693e-005, 4.06592526e-003,
          3.12150150e-005, 0., 1.19185479e-005, 1.04461261e-003, 0., 0.,
          0., 7.04962804e-005, 7.35083550e-010, 1.93019441e-005, 0., 0.,
          0., 0., 0., 4.74481141e-007, 8.73921522e-008, 0.,
          1.00583622e-006, 7.60680632e-006, 2.85912993e-005,
          5.53778179e-008, 1.65992504e-004, 0., 0., 1.72820117e-004,
          4.08695712e-007, 0., 0., 0., 0., 0., 1.19736954e-009, 0.,
          4.41486901e-003, 5.81053959e-004, 8.12987704e-003,
          4.42349724e-003, 4.17244108e-003, 1.09056970e-007,
          1.52001418e-002, 0., 0., 0., 2.33952320e-004, 4.73848683e-010,
          5.23478911e-006, 4.41516517e-003, 1.24899932e-004,
          6.74354806e-006, 2.42361693e-005, 0., 2.53632606e-004, 0.,
          1.65775759e-006, 6.00786917e-002, 2.79753021e-006,
          1.81761454e-004, 7.73772554e-005, 8.99815120e-007, 0.,
          3.43451509e-004, 1.67248822e-006, 2.36533381e-007,
          4.18329798e-003, 0., 9.18725984e-009, 0., 0., 2.68774407e-008,
          0., 0., 0., 0., 0., 0., 8.08129341e-010, 0., 0.,
          5.14173182e-004, 0., 1.05865467e-002, 0., 2.25901545e-006, 0.,
          4.53717985e-006, 1.51040126e-006, 6.42083660e-002, 0.,
          7.45671714e-005, 1.35124419e-005, 1.49066284e-006,
          1.40260658e-004, 0., 6.53804047e-004, 0., 1.21585163e-006, 0.,
          3.38707869e-005, 0., 0., 1.72688682e-002, 0., 0.,
          9.87104067e-006, 3.22123706e-001, 1.59024112e-005,
          1.59641175e-007, 0., 0., 6.98247412e-003, 2.66035571e-009,
          3.87837567e-008, 0., 6.18930907e-010, 0., 7.28239247e-005, 0.,
          0., 3.86046644e-008, 3.23261759e-007, 8.13074037e-003,
          8.81613791e-003, 1.28517466e-004, 4.40806895e-003,
          8.15467909e-003, 0., 3.83871491e-003, 0., 0., 0.,
          3.93214486e-006, 4.08695712e-007, 0., 2.82331295e-002,
          3.10542033e-004, 2.30482619e-005, 0., 2.50673969e-004,
          4.14104392e-007, 1.41435743e-008, 0., 3.10057544e-007, 0.,
          2.06946534e-005, 0., 1.71044832e-007, 0., 3.91502880e-007, 0.,
          0., 0., 0., 0., 0., 5.58233251e-006, 2.30926889e-005,
          1.41769527e-002, 0., 5.29829158e-008, 2.70583667e-009,
          5.34083028e-006, 0., 1.28907966e-004, 2.68228760e-004, 0.,
          1.72230583e-002, 3.41196689e-008, 1.11749741e-005, 0., 0. ]
      - [ 0., 0., 0., 0., 0., 0., 0., 0., 0., 0., 0., 0., 0., 0., 0., 0.,
          0., 0., 0., 0., 0., 0., 0., 0., 0., 0., 0., 0., 0., 0., 0., 0.,
